[
 {
  "init_weights": [
   -9.5,
   0.3
  ],
  "results": [
   [
    [
     -1.8844062146866405,
     0.3011818862092462
    ],
    6
   ],
   [
    [
     -1.8769814568082288,
     0.293466495895448
    ],
    6
   ],
   [
    [
     -1.8785953514845015,
     0.2930608559602424
    ],
    6
   ],
   [
    [
     -1.8780521174106157,
     0.2962305824419033
    ],
    6
   ],
   [
    [
     -1.8832767022393455,
     0.29719947311051675
    ],
    6
   ],
   [
    [
     -1.8852103415815764,
     0.29848203102644644
    ],
    6
   ],
   [
    [
     -1.8796635940323925,
     0.29176830774405366
    ],
    6
   ],
   [
    [
     -1.8788667424578136,
     0.2944375691634938
    ],
    6
   ],
   [
    [
     -1.878285291197224,
     0.2962353897063657
    ],
    6
   ],
   [
    [
     -1.8755075739448883,
     0.296781609163868
    ],
    6
   ],
   [
    [
     -1.8794526951406425,
     0.2972236583525844
    ],
    6
   ],
   [
    [
     -1.877748621259775,
     0.29752340822109297
    ],
    6
   ],
   [
    [
     -1.8790501852172778,
     0.2942753428355454
    ],
    6
   ],
   [
    [
     -1.8797634410599577,
     0.295023240792396
    ],
    6
   ],
   [
    [
     -1.8802622452898867,
     0.3002850715072986
    ],
    6
   ]
  ]
 },
 {
  "init_weights": [
   -9.3,
   0.3
  ],
  "results": [
   [
    [
     -1.7831916776951304,
     0.30121039140158473
    ],
    6
   ],
   [
    [
     -1.7757021517857903,
     0.29343567018738204
    ],
    6
   ],
   [
    [
     -1.7773865010543608,
     0.29302658310767704
    ],
    6
   ],
   [
    [
     -1.7767951153525834,
     0.29621005059278877
    ],
    6
   ],
   [
    [
     -1.7820185167756342,
     0.2971952440195396
    ],
    6
   ],
   [
    [
     -1.7838395461752286,
     0.29848322113519354
    ],
    6
   ],
   [
    [
     -1.7784211808308923,
     0.29171845399286417
    ],
    6
   ],
   [
    [
     -1.7776421406047156,
     0.2944293295503204
    ],
    6
   ],
   [
    [
     -1.7770061843087857,
     0.29621908584972073
    ],
    6
   ],
   [
    [
     -1.7743378802821421,
     0.296783572617505
    ],
    6
   ],
   [
    [
     -1.7781461792211435,
     0.2972278275103284
    ],
    6
   ],
   [
    [
     -1.7765042385157395,
     0.2975184157556604
    ],
    6
   ],
   [
    [
     -1.7777726504485416,
     0.29425755314524515
    ],
    6
   ],
   [
    [
     -1.7785473263457718,
     0.2950031562722655
    ],
    6
   ],
   [
    [
     -1.778925536364127,
     0.30027897537025106
    ],
    6
   ]
  ]
 },
 {
  "init_weights": [
   -9.1,
   0.3
  ],
  "results": [
   [
    [
     -1.6829184307635923,
     0.3012390097284445
    ],
    6
   ],
   [
    [
     -1.6753612150534087,
     0.293403650096941
    ],
    6
   ],
   [
    [
     -1.6771157892782511,
     0.29299104805256415
    ],
    6
   ],
   [
    [
     -1.6764766928053028,
     0.2961888417734479
    ],
    6
   ],
   [
    [
     -1.6817016881428226,
     0.29719046139139094
    ],
    6
   ],
   [
    [
     -1.6834128879043155,
     0.2984840950964025
    ],
    6
   ],
   [
    [
     -1.6781179709018061,
     0.29166714355421225
    ],
    6
   ],
   [
    [
     -1.67735609757648,
     0.2944199916470022
    ],
    6
   ],
   [
    [
     -1.6766661217074257,
     0.29620208696908373
    ],
    6
   ],
   [
    [
     -1.6741041459364339,
     0.29678487143600113
    ],
    6
   ],
   [
    [
     -1.677779767901558,
     0.29723141108094453
    ],
    6
   ],
   [
    [
     -1.6761980897305326,
     0.29751294045766136
    ],
    6
   ],
   [
    [
     -1.677434557503195,
     0.2942386747810466
    ],
    6
   ],
   [
    [
     -1.6782700736165486,
     0.2949821459016205
    ],
    6
   ],
   [
    [
     -1.6785298029805917,
     0.30027296492524874
    ],
    6
   ]
  ]
 },
 {
  "init_weights": [
   -8.9,
   0.3
  ],
  "results": [
   [
    [
     -1.5836252394728332,
     0.3012677433235231
    ],
    6
   ],
   [
    [
     -1.575997240460863,
     0.29337039562882594
    ],
    6
   ],
   [
    [
     -1.5778218672495399,
     0.2929542087001818
    ],
    6
   ],
   [
    [
     -1.5771354738180394,
     0.2961669334126821
    ],
    6
   ],
   [
    [
     -1.582364943575568,
     0.2971851060452873
    ],
    6
   ],
   [
    [
     -1.5839690872946235,
     0.2984846418425152
    ],
    6
   ],
   [
    [
     -1.5787926255820455,
     0.29161432848792646
    ],
    6
   ],
   [
    [
     -1.5780472623501334,
     0.2944095177189805
    ],
    6
   ],
   [
    [
     -1.577303723536114,
     0.2961843696931549
    ],
    6
   ],
   [
    [
     -1.5748449714002108,
     0.29678548226855095
    ],
    6
   ],
   [
    [
     -1.578392093077192,
     0.29723438828433446
    ],
    6
   ],
   [
    [
     -1.5768687967789694,
     0.2975069656971006
    ],
    6
   ],
   [
    [
     -1.578074541237745,
     0.29421867075753055
    ],
    6
   ],
   [
    [
     -1.578970355350275,
     0.29496017856078366
    ],
    6
   ],
   [
    [
     -1.5791136828132732,
     0.30026704347392214
    ],
    6
   ]
  ]
 },
 {
  "init_weights": [
   -8.7,
   0.3
  ],
  "results": [
   [
    [
     -1.485353282146741,
     0.3012965943457809
    ],
    6
   ],
   [
    [
     -1.4776512191585771,
     0.29333586575486564
    ],
    6
   ],
   [
    [
     -1.479545791784051,
     0.2929160216339533
    ],
    6
   ],
   [
    [
     -1.4788124828500504,
     0.29614430249959095
    ],
    6
   ],
   [
    [
     -1.4840494174970253,
     0.2971791582670061
    ],
    6
   ],
   [
    [
     -1.4855492658986587,
     0.29848484981825013
    ],
    6
   ],
   [
    [
     -1.4804862100922285,
     0.291559959462511
    ],
    6
   ],
   [
    [
     -1.4797566886026186,
     0.2943978684362432
    ],
    6
   ],
   [
    [
     -1.4789600092820612,
     0.2961659099136433
    ],
    6
   ],
   [
    [
     -1.4766013621967937,
     0.2967853808391613
    ],
    6
   ],
   [
    [
     -1.480024185255745,
     0.2972367377302267
    ],
    6
   ],
   [
    [
     -1.4785573829891943,
     0.297500474393602
    ],
    6
   ],
   [
    [
     -1.4797336368647893,
     0.29419750288527763
    ],
    6
   ],
   [
    [
     -1.4806892499309365,
     0.2949372220514016
    ],
    6
   ],
   [
    [
     -1.480718210388874,
     0.30026121450197735
    ],
    6
   ]
  ]
 },
 {
  "init_weights": [
   -8.5,
   0.3
  ],
  "results": [
   [
    [
     -1.3881463661953624,
     0.30132556469569083
    ],
    6
   ],
   [
    [
     -1.380366754708036,
     0.29330001807653716
    ],
    6
   ],
   [
    [
     -1.3823312404479362,
     0.29287644240513877
    ],
    6
   ],
   [
    [
     -1.3815513600341423,
     0.29612092536010154
    ],
    6
   ],
   [
    [
     -1.3867988683551766,
     0.29717259762360115
    ],
    6
   ],
   [
    [
     -1.3881971625249687,
     0.2984847071664953
    ],
    6
   ],
   [
    [
     -1.3832424090462143,
     0.2915039859621976
    ],
    6
   ],
   [
    [
     -1.382528050324113,
     0.2943850032816665
    ],
    6
   ],
   [
    [
     -1.38167861251189,
     0.2961466829364287
    ],
    6
   ],
   [
    [
     -1.3794169437506176,
     0.2967845421436512
    ],
    6
   ],
   [
    [
     -1.3827196888952453,
     0.2972384370364707
    ],
    6
   ],
   [
    [
     -1.3813074880941392,
     0.29749344876648204
    ],
    6
   ],
   [
    [
     -1.3824554955169133,
     0.2941751317481955
    ],
    6
   ],
   [
    [
     -1.3834704580073884,
     0.29491324323455
    ],
    6
   ],
   [
    [
     -1.3833870327832862,
     0.3002554818067247
    ],
    6
   ]
  ]
 },
 {
  "init_weights": [
   -8.3,
   0.3
  ],
  "results": [
   [
    [
     -1.2920511740819862,
     0.3013546558506586
    ],
    6
   ],
   [
    [
     -1.2841903061880189,
     0.29326280925741627
    ],
    6
   ],
   [
    [
     -1.286224755635006,
     0.29283542530927004
    ],
    6
   ],
   [
    [
     -1.2853986051754318,
     0.29609677762454706
    ],
    6
   ],
   [
    [
     -1.2906599233317875,
     0.2971654030341386
    ],
    6
   ],
   [
    [
     -1.2919593788051764,
     0.2984842014330108
    ],
    6
   ],
   [
    [
     -1.287107770874944,
     0.29144635629661647
    ],
    6
   ],
   [
    [
     -1.2864078858715962,
     0.2943708803640644
    ],
    6
   ],
   [
    [
     -1.2855060247776329,
     0.29612666336231536
    ],
    6
   ],
   [
    [
     -1.2833382047314594,
     0.29678294003874767
    ],
    6
   ],
   [
    [
     -1.2865251064382481,
     0.297239463126839
    ],
    6
   ],
   [
    [
     -1.2851656119711183,
     0.29748587054035136
    ],
    6
   ],
   [
    [
     -1.286286627845,
     0.29415151683856955
    ],
    6
   ],
   [
    [
     -1.2873605465505136,
     0.2948882082347447
    ],
    6
   ],
   [
    [
     -1.287166653681641,
     0.30024984925687587
    ],
    6
   ]
  ]
 },
 {
  "init_weights": [
   -8.1,
   0.3
  ],
  "results": [
   [
    [
     -1.1971175411311674,
     0.3013838689512996
    ],
    6
   ],
   [
    [
     -1.1891714638992357,
     0.2932241951617897
    ],
    6
   ],
   [
    [
     -1.1912760208170299,
     0.29279292382021316
    ],
    6
   ],
   [
    [
     -1.1904038531605812,
     0.296071834630234
    ],
    6
   ],
   [
    [
     -1.1956823560744045,
     0.2971575527758187
    ],
    6
   ],
   [
    [
     -1.1968856562943546,
     0.29848331981875514
    ],
    6
   ],
   [
    [
     -1.1921319840237736,
     0.29138701804047906
    ],
    6
   ],
   [
    [
     -1.1914458740138676,
     0.29435545671596836
    ],
    6
   ],
   [
    [
     -1.1904918713250332,
     0.2961058252623848
    ],
    6
   ],
   [
    [
     -1.1884147722942047,
     0.29678054764419415
    ],
    6
   ],
   [
    [
     -1.191490073938617,
     0.2972397919259952
    ],
    6
   ],
   [
    [
     -1.1901813903447593,
     0.29747772099990655
    ],
    6
   ],
   [
    [
     -1.1912766803493933,
     0.29412661656877814
    ],
    6
   ],
   [
    [
     -1.1924092251471707,
     0.2948620822498091
    ],
    6
   ],
   [
    [
     -1.1921067089323705,
     0.30024432102848436
    ],
    6
   ]
  ]
 },
 {
  "init_weights": [
   -7.9,
   0.3
  ],
  "results": [
   [
    [
     -1.1033987733460608,
     0.3014132046382209
    ],
    6
   ],
   [
    [
     -1.0953632635059074,
     0.29318413070542293
    ],
    6
   ],
   [
    [
     -1.0975381761084613,
     0.2927488907101355
    ],
    6
   ],
   [
    [
     -1.096620189396503,
     0.29604607133858307
    ],
    6
   ],
   [
    [
     -1.1019194033917956,
     0.29714902466087245
    ],
    6
   ],
   [
    [
     -1.103029193885798,
     0.29848204914061394
    ],
    6
   ],
   [
    [
     -1.098368192659526,
     0.29132591809707414
    ],
    6
   ],
   [
    [
     -1.0976951497235574,
     0.2943386880562258
    ],
    6
   ],
   [
    [
     -1.0966892262614758,
     0.2960841422663878
    ],
    6
   ],
   [
    [
     -1.0946997269759682,
     0.29677733722875665
    ],
    6
   ],
   [
    [
     -1.097667676838181,
     0.2972393987325339
    ],
    6
   ],
   [
    [
     -1.0964079098284059,
     0.2974689808861395
    ],
    6
   ],
   [
    [
     -1.0974787503637153,
     0.2941003885919414
    ],
    6
   ],
   [
    [
     -1.098669662469848,
     0.2948348299250728
    ],
    6
   ],
   [
    [
     -1.0982602827191204,
     0.30023890150725663
    ],
    6
   ]
  ]
 },
 {
  "init_weights": [
   -7.7,
   0.3
  ],
  "results": [
   [
    [
     -1.0109520031892154,
     0.30144266280513404
    ],
    6
   ],
   [
    [
     -0.9815231186226778,
     0.2930837889947125
    ],
    7
   ],
   [
    [
     -1.0050681718289545,
     0.2927032782982469
    ],
    6
   ],
   [
    [
     -1.0041045025318756,
     0.29601946253727507
    ],
    6
   ],
   [
    [
     -0.9878087356419571,
     0.2970943608255044
    ],
    7
   ],
   [
    [
     -0.9879267332766999,
     0.29844784899160803
    ],
    7
   ],
   [
    [
     -1.0058733506685642,
     0.29126300326369575
    ],
    6
   ],
   [
    [
     -1.0052126575160845,
     0.2943205293258585
    ],
    6
   ],
   [
    [
     -0.9827481803876601,
     0.2960243843424933
    ],
    7
   ],
   [
    [
     -1.0022499550119934,
     0.29677328025743377
    ],
    6
   ],
   [
    [
     -0.9834736519507216,
     0.29717440151176167
    ],
    7
   ],
   [
    [
     -1.0039020610391387,
     0.2974596305721174
    ],
    6
   ],
   [
    [
     -0.983532951346052,
     0.29400047578449784
    ],
    7
   ],
   [
    [
     -1.0061988397063268,
     0.2948064154295962
    ],
    6
   ],
   [
    [
     -0.9837363615812171,
     0.30025284834906024
    ],
    7
   ]
  ]
 },
 {
  "init_weights": [
   -7.5,
   0.3
  ],
  "results": [
   [
    [
     -0.8976449328711275,
     0.30143513509910486
    ],
    7
   ],
   [
    [
     -0.8894853236192818,
     0.29304195210418993
    ],
    7
   ],
   [
    [
     -0.8921170929055828,
     0.2925984803240038
    ],
    7
   ],
   [
    [
     -0.8908426557728639,
     0.29596455107153136
    ],
    7
   ],
   [
    [
     -0.8958802762947167,
     0.2970864628645977
    ],
    7
   ],
   [
    [
     -0.8960409792631765,
     0.29844745977130427
    ],
    7
   ],
   [
    [
     -0.8926219071835095,
     0.29114872112667844
    ],
    7
   ],
   [
    [
     -0.8921935075781918,
     0.29421467135456303
    ],
    7
   ],
   [
    [
     -0.8907353770564058,
     0.29600191099758294
    ],
    7
   ],
   [
    [
     -0.8897765740793162,
     0.2967045086861976
    ],
    7
   ],
   [
    [
     -0.8914789425933418,
     0.29717591154407885
    ],
    7
   ],
   [
    [
     -0.8907520054342505,
     0.2974139627037389
    ],
    7
   ],
   [
    [
     -0.8915283664583232,
     0.2939741213378094
    ],
    7
   ],
   [
    [
     -0.8931317702925677,
     0.29472607508765625
    ],
    7
   ],
   [
    [
     -0.8917647633745353,
     0.3002463700115298
    ],
    7
   ]
  ]
 },
 {
  "init_weights": [
   -7.3,
   0.3
  ],
  "results": [
   [
    [
     -0.8073884665959081,
     0.30146826793082077
    ],
    7
   ],
   [
    [
     -0.7991038436109523,
     0.2929986514076998
    ],
    7
   ],
   [
    [
     -0.8017647147309053,
     0.29255075870409647
    ],
    7
   ],
   [
    [
     -0.8004819968013794,
     0.2959365313459378
    ],
    7
   ],
   [
    [
     -0.8056044739543371,
     0.2970778180902017
    ],
    7
   ],
   [
    [
     -0.8057897101713861,
     0.2984466196941003
    ],
    7
   ],
   [
    [
     -0.8022882973893016,
     0.29108199186704536
    ],
    7
   ],
   [
    [
     -0.8018376535343884,
     0.29419766475681663
    ],
    7
   ],
   [
    [
     -0.8003771365183154,
     0.29597857396260174
    ],
    7
   ],
   [
    [
     -0.7993674350999704,
     0.29670210018409554
    ],
    7
   ],
   [
    [
     -0.8011342088391302,
     0.29717657482878423
    ],
    7
   ],
   [
    [
     -0.8003853641138082,
     0.29740493275301993
    ],
    7
   ],
   [
    [
     -0.8011786201480391,
     0.29394636259040063
    ],
    7
   ],
   [
    [
     -0.8027989640677229,
     0.29469682126783125
    ],
    7
   ],
   [
    [
     -0.8014367694591954,
     0.3002400509538586
    ],
    7
   ]
  ]
 },
 {
  "init_weights": [
   -7.1,
   0.3
  ],
  "results": [
   [
    [
     -0.7188333882368364,
     0.301501372750642
    ],
    7
   ],
   [
    [
     -0.7104204002650717,
     0.2929538305952386
    ],
    7
   ],
   [
    [
     -0.7131181092879758,
     0.292501447199792
    ],
    7
   ],
   [
    [
     -0.7118210742213159,
     0.2959076710614345
    ],
    7
   ],
   [
    [
     -0.7170252942126533,
     0.2970684003031115
    ],
    7
   ],
   [
    [
     -0.7172212914835304,
     0.2984453137286974
    ],
    7
   ],
   [
    [
     -0.7136552225841969,
     0.29101349220701117
    ],
    7
   ],
   [
    [
     -0.7131866366269622,
     0.294179127078019
    ],
    7
   ],
   [
    [
     -0.711715876904225,
     0.29595434066616116
    ],
    7
   ],
   [
    [
     -0.7106723656729831,
     0.2966987188165541
    ],
    7
   ],
   [
    [
     -0.712483190556572,
     0.2971763629476837
    ],
    7
   ],
   [
    [
     -0.7117204453077225,
     0.29739523862448475
    ],
    7
   ],
   [
    [
     -0.7125262464843285,
     0.29391714815273234
    ],
    7
   ],
   [
    [
     -0.7141701795839229,
     0.29466636558615245
    ],
    7
   ],
   [
    [
     -0.7127977158658213,
     0.3002338959230722
    ],
    7
   ]
  ]
 },
 {
  "init_weights": [
   -6.9,
   0.3
  ],
  "results": [
   [
    [
     -0.632035276557332,
     0.3015344485002697
    ],
    7
   ],
   [
    [
     -0.6234895943350709,
     0.292907440008497
    ],
    7
   ],
   [
    [
     -0.6262306363211656,
     0.29245049291212716
    ],
    7
   ],
   [
    [
     -0.6249143773325698,
     0.295877942677006
    ],
    7
   ],
   [
    [
     -0.6301990200535106,
     0.29705818466088946
    ],
    7
   ],
   [
    [
     -0.6303950710740933,
     0.29844352698050614
    ],
    7
   ],
   [
    [
     -0.6267773693601641,
     0.2909431643635269
    ],
    7
   ],
   [
    [
     -0.6262940854329563,
     0.29415900817580287
    ],
    7
   ],
   [
    [
     -0.6248067031546408,
     0.29592918203778856
    ],
    7
   ],
   [
    [
     -0.6237422376029551,
     0.2966943325190087
    ],
    7
   ],
   [
    [
     -0.6255819138467377,
     0.2971752476238622
    ],
    7
   ],
   [
    [
     -0.6248112617360008,
     0.29738485851830243
    ],
    7
   ],
   [
    [
     -0.6256264463007257,
     0.2938864308698701
    ],
    7
   ],
   [
    [
     -0.6272994084272902,
     0.29463466856600684
    ],
    7
   ],
   [
    [
     -0.625904738979461,
     0.30022791037324403
    ],
    7
   ]
  ]
 },
 {
  "init_weights": [
   -6.699999999999999,
   0.3
  ],
  "results": [
   [
    [
     -0.54706115908381,
     0.3015674895561344
    ],
    7
   ],
   [
    [
     -0.538377559578849,
     0.2928594367856435
    ],
    7
   ],
   [
    [
     -0.5411676237780211,
     0.29239785058129963
    ],
    7
   ],
   [
    [
     -0.5398279961282895,
     0.2958473229657849
    ],
    7
   ],
   [
    [
     -0.5451931350197675,
     0.2970471478455078
    ],
    7
   ],
   [
    [
     -0.5453807353343836,
     0.29844124487076473
    ],
    7
   ],
   [
    [
     -0.5417210108298398,
     0.2908709606061821
    ],
    7
   ],
   [
    [
     -0.5412255151329926,
     0.29413726110281063
    ],
    7
   ],
   [
    [
     -0.5397161370176111,
     0.2959030726482151
    ],
    7
   ],
   [
    [
     -0.5386405875899365,
     0.29668891021663063
    ],
    7
   ],
   [
    [
     -0.54049756979686,
     0.29717320086109417
    ],
    7
   ],
   [
    [
     -0.5397235655299497,
     0.2973737723113772
    ],
    7
   ],
   [
    [
     -0.540545826821488,
     0.29385416811258575
    ],
    7
   ],
   [
    [
     -0.5422524470911201,
     0.29460169539386005
    ],
    7
   ],
   [
    [
     -0.5408258308329725,
     0.3002221004954438
    ],
    7
   ]
  ]
 },
 {
  "init_weights": [
   -6.5,
   0.3
  ],
  "results": [
   [
    [
     -0.46398911628934303,
     0.30160048572587317
    ],
    8
   ],
   [
    [
     -0.4551615059146238,
     0.29280978530050006
    ],
    8
   ],
   [
    [
     -0.4580057718780332,
     0.29234348318157205
    ],
    8
   ],
   [
    [
     -0.45663914699530084,
     0.29581579338892916
    ],
    8
   ],
   [
    [
     -0.4620860035732043,
     0.2970352684080876
    ],
    8
   ],
   [
    [
     -0.4622582696228785,
     0.29843845327358204
    ],
    8
   ],
   [
    [
     -0.4585635441877134,
     0.29079684410415996
    ],
    8
   ],
   [
    [
     -0.458057759559165,
     0.2941138426999915
    ],
    8
   ],
   [
    [
     -0.45652170432507316,
     0.2958759910654129
    ],
    8
   ],
   [
    [
     -0.45544276610497425,
     0.2966824220868197
    ],
    8
   ],
   [
    [
     -0.4573081892309671,
     0.2971701952894554
    ],
    8
   ],
   [
    [
     -0.45653432561439283,
     0.2973619617944882
    ],
    8
   ],
   [
    [
     -0.4573619957167642,
     0.29382032231223537
    ],
    8
   ],
   [
    [
     -0.4591063617419842,
     0.2945674165436497
    ],
    8
   ],
   [
    [
     -0.4576396171430599,
     0.30021647321684636
    ],
    8
   ]
  ]
 },
 {
  "init_weights": [
   -6.3,
   0.3
  ],
  "results": [
   [
    [
     -0.38290848171697167,
     0.3016334217562738
    ],
    8
   ],
   [
    [
     -0.37392987500742675,
     0.29275845892936775
    ],
    8
   ],
   [
    [
     -0.37683322779573425,
     0.2922873636667782
    ],
    8
   ],
   [
    [
     -0.3754363188097867,
     0.29578334093528474
    ],
    8
   ],
   [
    [
     -0.38096711603720196,
     0.29702252739979373
    ],
    8
   ],
   [
    [
     -0.38111837716145036,
     0.29843513891479956
    ],
    8
   ],
   [
    [
     -0.37739364567208916,
     0.2907207910541854
    ],
    8
   ],
   [
    [
     -0.3768790629890272,
     0.294088714879209
    ],
    8
   ],
   [
    [
     -0.37531211891641736,
     0.29584792081208516
    ],
    8
   ],
   [
    [
     -0.3742358583934479,
     0.29667484026514485
    ],
    8
   ],
   [
    [
     -0.37610288018323695,
     0.29716620482607914
    ],
    8
   ],
   [
    [
     -0.3753318454313781,
     0.29734941109627383
    ],
    8
   ],
   [
    [
     -0.37616374926548496,
     0.29378486239224927
    ],
    8
   ],
   [
    [
     -0.3779495997363177,
     0.2945318088870469
    ],
    8
   ],
   [
    [
     -0.37643565867006246,
     0.3002110361769805
    ],
    8
   ]
  ]
 },
 {
  "init_weights": [
   -6.1,
   0.3
  ],
  "results": [
   [
    [
     -0.3039205227066731,
     0.3016662765262656
    ],
    8
   ],
   [
    [
     -0.29478298392595126,
     0.2927054422105204
    ],
    8
   ],
   [
    [
     -0.29775018119415536,
     0.29222947729960197
    ],
    8
   ],
   [
    [
     -0.2963199124222572,
     0.29574995962157713
    ],
    8
   ],
   [
    [
     -0.30193779583814084,
     0.2970089093113688
    ],
    8
   ],
   [
    [
     -0.302063298782009,
     0.2984312897800843
    ],
    7
   ],
   [
    [
     -0.29831191749168295,
     0.29064279368624996
    ],
    8
   ],
   [
    [
     -0.29778968608024536,
     0.2940618462102529
    ],
    8
   ],
   [
    [
     -0.29618794547136873,
     0.29581885159121013
    ],
    8
   ],
   [
    [
     -0.2951191822784712,
     0.29666613956221255
    ],
    8
   ],
   [
    [
     -0.296982525366501,
     0.2971612053596758
    ],
    8
   ],
   [
    [
     -0.2962163837260096,
     0.2973361075467534
    ],
    8
   ],
   [
    [
     -0.2970517388339292,
     0.2937477656295652
    ],
    8
   ],
   [
    [
     -0.29888260992946625,
     0.2944948573908942
    ],
    8
   ],
   [
    [
     -0.2973151901397457,
     0.3002057976827902
    ],
    8
   ]
  ]
 },
 {
  "init_weights": [
   -5.9,
   0.3
  ],
  "results": [
   [
    [
     -0.22713956833887142,
     0.3016990220183201
    ],
    7
   ],
   [
    [
     -0.2178341170577855,
     0.2926507342313729
    ],
    7
   ],
   [
    [
     -0.2208699287187493,
     0.29216982523359875
    ],
    7
   ],
   [
    [
     -0.2194033317606093,
     0.2957156522587462
    ],
    7
   ],
   [
    [
     -0.22511234248663986,
     0.2969944031424956
    ],
    7
   ],
   [
    [
     -0.22520803026096808,
     0.29842689565821606
    ],
    7
   ],
   [
    [
     -0.22143198621915847,
     0.290562864724444
    ],
    7
   ],
   [
    [
     -0.22090297738750578,
     0.2940332144134497
    ],
    7
   ],
   [
    [
     -0.21926270566165584,
     0.2957887811840887
    ],
    7
   ],
   [
    [
     -0.21820528601194628,
     0.29665629885469413
    ],
    7
   ],
   [
    [
     -0.22006091251162646,
     0.2971551756719615
    ],
    7
   ],
   [
    [
     -0.21930123376706098,
     0.29732204277593827
    ],
    7
   ],
   [
    [
     -0.2201395807885171,
     0.2937090202886945
    ],
    7
   ],
   [
    [
     -0.22201892443155075,
     0.29445655758004247
    ],
    7
   ],
   [
    [
     -0.22039227810644044,
     0.30020076679116725
    ],
    7
   ]
  ]
 },
 {
  "init_weights": [
   -5.699999999999999,
   0.3
  ],
  "results": [
   [
    [
     -0.1526946092501795,
     0.30173162167200085
    ],
    7
   ],
   [
    [
     -0.143211087452151,
     0.29259435303054915
    ],
    7
   ],
   [
    [
     -0.14632042168560588,
     0.29210842928610303
    ],
    7
   ],
   [
    [
     -0.14481454682692746,
     0.29568043338195776
    ],
    7
   ],
   [
    [
     -0.15061963816465623,
     0.2969790042566671
    ],
    7
   ],
   [
    [
     -0.1506819799252526,
     0.2984219490357736
    ],
    7
   ],
   [
    [
     -0.14688207403093634,
     0.290481043329904
    ],
    7
   ],
   [
    [
     -0.1463469253896896,
     0.2940028095451094
    ],
    7
   ],
   [
    [
     -0.14466445132490932,
     0.29575771809927903
    ],
    7
   ],
   [
    [
     -0.1436214480088105,
     0.29664530273756334
    ],
    7
   ],
   [
    [
     -0.14546632456754507,
     0.29714809896695926
    ],
    7
   ],
   [
    [
     -0.14471427815736665,
     0.29730721417571715
    ],
    7
   ],
   [
    [
     -0.1455554330527557,
     0.29366862939536476
    ],
    7
   ],
   [
    [
     -0.14748671953636788,
     0.29441691884102805
    ],
    7
   ],
   [
    [
     -0.14579543049214785,
     0.3001959533332013
    ],
    7
   ]
  ]
 },
 {
  "init_weights": [
   -5.5,
   0.3
  ],
  "results": [
   [
    [
     -0.08073144754273553,
     0.30176402827050697
    ],
    7
   ],
   [
    [
     -0.07105834034295101,
     0.29253634168340975
    ],
    7
   ],
   [
    [
     -0.07424636692394639,
     0.29204533851343306
    ],
    7
   ],
   [
    [
     -0.07269820218941124,
     0.29564433264084217
    ],
    7
   ],
   [
    [
     -0.07860529778796609,
     0.29696271653703976
    ],
    7
   ],
   [
    [
     -0.07863115372204041,
     0.2984164460435922
    ],
    7
   ],
   [
    [
     -0.07480711682673569,
     0.29039740340984543
    ],
    7
   ],
   [
    [
     -0.07426626256689942,
     0.2939706384760041
    ],
    7
   ],
   [
    [
     -0.07253787931916675,
     0.295725684862139
    ],
    7
   ],
   [
    [
     -0.07151173931896923,
     0.29663314367628224
    ],
    7
   ],
   [
    [
     -0.07334366785198593,
     0.2971399646089069
    ],
    7
   ],
   [
    [
     -0.07260009139189649,
     0.29729162694636546
    ],
    7
   ],
   [
    [
     -0.07344411422885297,
     0.29362661555270186
    ],
    7
   ],
   [
    [
     -0.07543092826955651,
     0.2943759689465097
    ],
    7
   ],
   [
    [
     -0.07366973864383683,
     0.30019136796823787
    ],
    7
   ]
  ]
 },
 {
  "init_weights": [
   -5.3,
   0.3
  ],
  "results": [
   [
    [
     -0.011415531455410823,
     0.30179618117616436
    ],
    7
   ],
   [
    [
     -0.001539729735960671,
     0.292476776566606
    ],
    7
   ],
   [
    [
     -0.004812010327701916,
     0.29198063811112607
    ],
    7
   ],
   [
    [
     -0.003218401052822825,
     0.2956073998704694
    ],
    7
   ],
   [
    [
     -0.009234498110838301,
     0.296945555495244
    ],
    7
   ],
   [
    [
     -0.009221008147999817,
     0.2984103880328929
    ],
    7
   ],
   [
    [
     -0.005371560900816877,
     0.2903120645875192
    ],
    7
   ],
   [
    [
     -0.004825250723710307,
     0.29393673098297113
    ],
    7
   ],
   [
    [
     -0.0030471195011207673,
     0.29569272278576825
    ],
    7
   ],
   [
    [
     -0.0020397737702412336,
     0.2966198252170415
    ],
    7
   ],
   [
    [
     -0.003857271319774584,
     0.29713077077510053
    ],
    7
   ],
   [
    [
     -0.0031227198693977547,
     0.2972752968289779
    ],
    7
   ],
   [
    [
     -0.003969896970849603,
     0.29358302779500367
    ],
    7
   ],
   [
    [
     -0.00601603485083866,
     0.29433376023886343
    ],
    7
   ],
   [
    [
     -0.004179687186515055,
     0.30018702225797333
    ],
    7
   ]
  ]
 },
 {
  "init_weights": [
   -5.1,
   0.3
  ],
  "results": [
   [
    [
     0.05506430601792081,
     0.30182800242997193
    ],
    7
   ],
   [
    [
     0.0651578210140404,
     0.292415778552753
    ],
    7
   ],
   [
    [
     0.06179518506439385,
     0.2919144615217054
    ],
    7
   ],
   [
    [
     0.06343762210349174,
     0.295569711741507
    ],
    7
   ],
   [
    [
     0.05730429626841832,
     0.29692755245742464
    ],
    7
   ],
   [
    [
     0.05735980791196655,
     0.29840378353626307
    ],
    7
   ],
   [
    [
     0.061236948017866166,
     0.29022520735967194
    ],
    7
   ],
   [
    [
     0.0617886394533973,
     0.2939011479130735
    ],
    7
   ],
   [
    [
     0.06362059078103666,
     0.29565889834839426
    ],
    7
   ],
   [
    [
     0.06460764703256813,
     0.2966053662046777
    ],
    7
   ],
   [
    [
     0.06280542834034639,
     0.2971205277967946
    ],
    7
   ],
   [
    [
     0.06353064881255814,
     0.2972582538817795
    ],
    7
   ],
   [
    [
     0.06267981045338926,
     0.293537950718181
    ],
    7
   ],
   [
    [
     0.0605702348416334,
     0.2942903779378041
    ],
    7
   ],
   [
    [
     0.06248715272054351,
     0.3001829286744315
    ],
    7
   ]
  ]
 },
 {
  "init_weights": [
   -4.8999999999999995,
   0.3
  ],
  "results": [
   [
    [
     0.11849086990120646,
     0.30185939149386276
    ],
    7
   ],
   [
    [
     0.12881945024727884,
     0.29235352849242124
    ],
    7
   ],
   [
    [
     0.12535963934789765,
     0.2918470072382409
    ],
    7
   ],
   [
    [
     0.12705461515971864,
     0.2955313810276914
    ],
    7
   ],
   [
    [
     0.12079437703113978,
     0.29690876044664793
    ],
    7
   ],
   [
    [
     0.1208944882608019,
     0.2983966510667603
    ],
    7
   ],
   [
    [
     0.12480265487818969,
     0.29013709396969134
    ],
    7
   ],
   [
    [
     0.12535982822681985,
     0.2938639927200453
    ],
    7
   ],
   [
    [
     0.12725002019084697,
     0.2956243119696629
    ],
    7
   ],
   [
    [
     0.12821567122701472,
     0.2965898066210887
    ],
    7
   ],
   [
    [
     0.12642898914579176,
     0.2971092631556426
    ],
    7
   ],
   [
    [
     0.12714480195374642,
     0.29724054771928676
    ],
    7
   ],
   [
    [
     0.12628956807165953,
     0.2934915171957539
    ],
    7
   ],
   [
    [
     0.12411199892631361,
     0.29424595178427637
    ],
    7
   ],
   [
    [
     0.12611521870503234,
     0.3001791007609865
    ],
    7
   ]
  ]
 },
 {
  "init_weights": [
   -4.699999999999999,
   0.3
  ],
  "results": [
   [
    [
     0.1786118583136163,
     0.30189021797616766
    ],
    7
   ],
   [
    [
     0.18919577018537756,
     0.29229028893099557
    ],
    7
   ],
   [
    [
     0.18563101826713338,
     0.2917785621333476
    ],
    7
   ],
   [
    [
     0.18738269408360492,
     0.29549256957657094
    ],
    7
   ],
   [
    [
     0.18098408125387003,
     0.29688926230377877
    ],
    7
   ],
   [
    [
     0.18113135601267394,
     0.2983890230691055
    ],
    7
   ],
   [
    [
     0.18507504757408025,
     0.2900480974487902
    ],
    7
   ],
   [
    [
     0.18563798921489616,
     0.2938254274615586
    ],
    7
   ],
   [
    [
     0.18759133115427515,
     0.29558911036649727
    ],
    7
   ],
   [
    [
     0.18853480557787988,
     0.29657321596294056
    ],
    7
   ],
   [
    [
     0.18676333830276587,
     0.2970970282094225
    ],
    7
   ],
   [
    [
     0.18746988948793164,
     0.29722225475150515
    ],
    7
   ],
   [
    [
     0.18660927777900693,
     0.29344392619213056
    ],
    7
   ],
   [
    [
     0.18435856207564183,
     0.2942006722373156
    ],
    7
   ],
   [
    [
     0.18645432493674416,
     0.3001755532114459
    ],
    7
   ]
  ]
 },
 {
  "init_weights": [
   -4.5,
   0.3
  ],
  "results": [
   [
    [
     0.23513049482932413,
     0.30192031122100205
    ],
    7
   ],
   [
    [
     0.24599373579423814,
     0.29222643491371575
    ],
    7
   ],
   [
    [
     0.2423150229949985,
     0.2917095349291131
    ],
    7
   ],
   [
    [
     0.24412817139142132,
     0.2954535066765052
    ],
    7
   ],
   [
    [
     0.23757747754754624,
     0.29686918242523314
    ],
    7
   ],
   [
    [
     0.23777455457211374,
     0.2983809515506443
    ],
    7
   ],
   [
    [
     0.2417596344870702,
     0.28995874312184045
    ],
    7
   ],
   [
    [
     0.24232884010000647,
     0.2937856957582398
    ],
    7
   ],
   [
    [
     0.24435091328267583,
     0.2955535040821165
    ],
    7
   ],
   [
    [
     0.245271770135955,
     0.2965557050456316
    ],
    7
   ],
   [
    [
     0.24351458777528284,
     0.2970839080011799
    ],
    7
   ],
   [
    [
     0.24421225453874215,
     0.297203488679294
    ],
    7
   ],
   [
    [
     0.24334499546164284,
     0.2933954681243779
    ],
    7
   ],
   [
    [
     0.24101517691877927,
     0.29415481358160145
    ],
    7
   ],
   [
    [
     0.24321047085349493,
     0.3001723019345392
    ],
    7
   ]
  ]
 },
 {
  "init_weights": [
   -4.3,
   0.3
  ],
  "results": [
   [
    [
     0.28769209174336113,
     0.3019494452645102
    ],
    7
   ],
   [
    [
     0.29886358317498524,
     0.2921624989341035
    ],
    7
   ],
   [
    [
     0.2950601996312223,
     0.29164050478770537
    ],
    7
   ],
   [
    [
     0.29694042980858126,
     0.2954145159614029
    ],
    7
   ],
   [
    [
     0.29022101713060444,
     0.29684870381087586
    ],
    7
   ],
   [
    [
     0.29047071467521,
     0.2983725162815205
    ],
    7
   ],
   [
    [
     0.29450473772607405,
     0.2898697690599775
    ],
    7
   ],
   [
    [
     0.2950809538670439,
     0.2937451562510882
    ],
    7
   ],
   [
    [
     0.2971782660360441,
     0.29551779311522847
    ],
    7
   ],
   [
    [
     0.2980764042095079,
     0.29653744326352405
    ],
    7
   ],
   [
    [
     0.29633189121161774,
     0.29707003550132116
    ],
    7
   ],
   [
    [
     0.2970213087471434,
     0.2971844156589872
    ],
    7
   ],
   [
    [
     0.29614578033938943,
     0.2933465618482527
    ],
    7
   ],
   [
    [
     0.29372980959525813,
     0.2941087676343589
    ],
    7
   ],
   [
    [
     0.2960326896949619,
     0.3001693642962839
    ],
    7
   ]
  ]
 },
 {
  "init_weights": [
   -4.1,
   0.3
  ],
  "results": [
   [
    [
     0.3273368882318643,
     0.30197697122714773
    ],
    6
   ],
   [
    [
     0.3387137960382094,
     0.29211751863477764
    ],
    6
   ],
   [
    [
     0.33483069890608436,
     0.29159139090696345
    ],
    6
   ],
   [
    [
     0.33675285256465376,
     0.295386215277498
    ],
    6
   ],
   [
    [
     0.32991841813281464,
     0.29683699587634244
    ],
    6
   ],
   [
    [
     0.3301955332873147,
     0.29836912252800113
    ],
    6
   ],
   [
    [
     0.3342724371327557,
     0.28980368643141197
    ],
    6
   ],
   [
    [
     0.3348559087402502,
     0.2937221369313891
    ],
    6
   ],
   [
    [
     0.33699937156829307,
     0.2954931076457806
    ],
    6
   ],
   [
    [
     0.33789105347746956,
     0.29652989264200896
    ],
    6
   ],
   [
    [
     0.3361446158834151,
     0.2970656074568211
    ],
    6
   ],
   [
    [
     0.3368326673764691,
     0.29717305642777186
    ],
    6
   ],
   [
    [
     0.33594938102563005,
     0.29331497342703644
    ],
    6
   ],
   [
    [
     0.33347890977778716,
     0.29407735210171604
    ],
    6
   ],
   [
    [
     0.335845835139992,
     0.30016499674218644
    ],
    6
   ]
  ]
 },
 {
  "init_weights": [
   -3.8999999999999995,
   0.3
  ],
  "results": [
   [
    [
     0.4825617214814399,
     0.3020734147267357
    ],
    5
   ],
   [
    [
     0.49750795101085504,
     0.2918581236699053
    ],
    5
   ],
   [
    [
     0.4922481143137962,
     0.29131463594949836
    ],
    5
   ],
   [
    [
     0.49489414694891654,
     0.29523095399940935
    ],
    5
   ],
   [
    [
     0.4860445923100891,
     0.2967473404088422
    ],
    5
   ],
   [
    [
     0.48676541912439636,
     0.2983281013822595
    ],
    5
   ],
   [
    [
     0.49163618597198,
     0.2894549261985898
    ],
    5
   ],
   [
    [
     0.4923233554929751,
     0.29354315602074244
    ],
    5
   ],
   [
    [
     0.49528468560239175,
     0.2953473336076246
    ],
    5
   ],
   [
    [
     0.4960789135029208,
     0.29644105508636975
    ],
    5
   ],
   [
    [
     0.4942606000262745,
     0.2969944673378378
    ],
    5
   ],
   [
    [
     0.4949549259225263,
     0.2970901038597088
    ],
    5
   ],
   [
    [
     0.49391600784540035,
     0.2931093753701558
    ],
    5
   ],
   [
    [
     0.49051951103620334,
     0.2938892855539273
    ],
    5
   ],
   [
    [
     0.4939758203739458,
     0.30015960869938973
    ],
    5
   ]
  ]
 },
 {
  "init_weights": [
   -3.6999999999999993,
   0.3
  ],
  "results": [
   [
    [
     0.48256172147647375,
     0.3020734147273801
    ],
    4
   ],
   [
    [
     0.4975079510053055,
     0.29185812366923786
    ],
    4
   ],
   [
    [
     0.4922481143084482,
     0.29131463594991613
    ],
    4
   ],
   [
    [
     0.4948941469430309,
     0.2952309540004107
    ],
    4
   ],
   [
    [
     0.48604459230574887,
     0.29674734040877093
    ],
    4
   ],
   [
    [
     0.48676541911815646,
     0.2983281013811611
    ],
    4
   ],
   [
    [
     0.4916361859667181,
     0.289454926198347
    ],
    4
   ],
   [
    [
     0.4923233554884202,
     0.29354315602014774
    ],
    4
   ],
   [
    [
     0.49528468559742034,
     0.2953473336083341
    ],
    4
   ],
   [
    [
     0.49607891349670474,
     0.2964410550855701
    ],
    4
   ],
   [
    [
     0.49426060001984407,
     0.296994467337236
    ],
    4
   ],
   [
    [
     0.4949549259174971,
     0.29709010386022255
    ],
    4
   ],
   [
    [
     0.49391600784068923,
     0.29310937537136056
    ],
    4
   ],
   [
    [
     0.49051951103017644,
     0.2938892855551799
    ],
    4
   ],
   [
    [
     0.4939758203672597,
     0.3001596086988629
    ],
    4
   ]
  ]
 },
 {
  "init_weights": [
   -3.5,
   0.3
  ],
  "results": [
   [
    [
     0.48256172147660636,
     0.30207341472729876
    ],
    4
   ],
   [
    [
     0.49750795100595047,
     0.29185812366973113
    ],
    4
   ],
   [
    [
     0.4922481143074561,
     0.29131463594985046
    ],
    4
   ],
   [
    [
     0.49489414694258826,
     0.29523095399932475
    ],
    4
   ],
   [
    [
     0.48604459230482533,
     0.2967473404089259
    ],
    4
   ],
   [
    [
     0.4867654191192726,
     0.29832810138115934
    ],
    4
   ],
   [
    [
     0.4916361859656244,
     0.28945492619867486
    ],
    4
   ],
   [
    [
     0.4923233554877828,
     0.29354315601994246
    ],
    4
   ],
   [
    [
     0.49528468559807615,
     0.2953473336085818
    ],
    4
   ],
   [
    [
     0.49607891349805877,
     0.2964410550855734
    ],
    4
   ],
   [
    [
     0.49426060002070216,
     0.2969944673384145
    ],
    4
   ],
   [
    [
     0.49495492591714074,
     0.29709010385998685
    ],
    4
   ],
   [
    [
     0.4939160078393669,
     0.29310937537034865
    ],
    4
   ],
   [
    [
     0.49051951102923463,
     0.2938892855535913
    ],
    4
   ],
   [
    [
     0.49397582036767385,
     0.30015960869903757
    ],
    4
   ]
  ]
 },
 {
  "init_weights": [
   -3.3,
   0.3
  ],
  "results": [
   [
    [
     0.48256172148114096,
     0.3020734147271504
    ],
    4
   ],
   [
    [
     0.4975079510109616,
     0.2918581236694731
    ],
    4
   ],
   [
    [
     0.4922481143133185,
     0.2913146359499096
    ],
    4
   ],
   [
    [
     0.4948941469483026,
     0.2952309539993517
    ],
    4
   ],
   [
    [
     0.4860445923095763,
     0.29674734040888684
    ],
    4
   ],
   [
    [
     0.48676541912383564,
     0.298328101381908
    ],
    4
   ],
   [
    [
     0.4916361859715607,
     0.2894549261986726
    ],
    4
   ],
   [
    [
     0.4923233554937876,
     0.2935431560205942
    ],
    4
   ],
   [
    [
     0.4952846856023522,
     0.2953473336088995
    ],
    4
   ],
   [
    [
     0.49607891350356315,
     0.2964410550855057
    ],
    4
   ],
   [
    [
     0.4942606000258445,
     0.29699446733730006
    ],
    4
   ],
   [
    [
     0.49495492592282075,
     0.29709010385973106
    ],
    4
   ],
   [
    [
     0.4939160078447269,
     0.2931093753704313
    ],
    4
   ],
   [
    [
     0.49051951103586033,
     0.2938892855540689
    ],
    4
   ],
   [
    [
     0.49397582037350063,
     0.3001596086997496
    ],
    4
   ]
  ]
 },
 {
  "init_weights": [
   -3.0999999999999996,
   0.3
  ],
  "results": [
   [
    [
     0.4825617214802846,
     0.302073414727148
    ],
    4
   ],
   [
    [
     0.4975079510096297,
     0.29185812367042774
    ],
    4
   ],
   [
    [
     0.49224811431140647,
     0.2913146359503965
    ],
    4
   ],
   [
    [
     0.4948941469464345,
     0.2952309539995217
    ],
    4
   ],
   [
    [
     0.48604459230903385,
     0.2967473404088204
    ],
    4
   ],
   [
    [
     0.4867654191229735,
     0.2983281013818257
    ],
    4
   ],
   [
    [
     0.491636185969643,
     0.28945492619801017
    ],
    4
   ],
   [
    [
     0.492323355491315,
     0.2935431560202842
    ],
    4
   ],
   [
    [
     0.4952846856003751,
     0.29534733360798243
    ],
    4
   ],
   [
    [
     0.4960789135014043,
     0.2964410550858107
    ],
    4
   ],
   [
    [
     0.4942606000229444,
     0.296994467337488
    ],
    4
   ],
   [
    [
     0.4949549259207724,
     0.29709010385987183
    ],
    4
   ],
   [
    [
     0.493916007843618,
     0.29310937537095777
    ],
    4
   ],
   [
    [
     0.49051951103401836,
     0.2938892855547024
    ],
    4
   ],
   [
    [
     0.4939758203718267,
     0.30015960869944847
    ],
    4
   ]
  ]
 },
 {
  "init_weights": [
   -2.8999999999999995,
   0.3
  ],
  "results": [
   [
    [
     0.48256172147741117,
     0.3020734147269951
    ],
    3
   ],
   [
    [
     0.4975079510043191,
     0.29185812366873504
    ],
    3
   ],
   [
    [
     0.4922481143068791,
     0.2913146359488796
    ],
    3
   ],
   [
    [
     0.4948941469402178,
     0.29523095400000254
    ],
    3
   ],
   [
    [
     0.48604459230486596,
     0.29674734040943673
    ],
    3
   ],
   [
    [
     0.48676541911918925,
     0.2983281013837547
    ],
    3
   ],
   [
    [
     0.49163618596707814,
     0.289454926198952
    ],
    3
   ],
   [
    [
     0.4923233554883262,
     0.29354315602014097
    ],
    3
   ],
   [
    [
     0.49528468559734706,
     0.2953473336100006
    ],
    3
   ],
   [
    [
     0.4960789134967645,
     0.2964410550860967
    ],
    3
   ],
   [
    [
     0.4942606000201646,
     0.29699446733697193
    ],
    3
   ],
   [
    [
     0.49495492591787027,
     0.29709010386090046
    ],
    3
   ],
   [
    [
     0.493916007839145,
     0.2931093753706685
    ],
    3
   ],
   [
    [
     0.49051951103033886,
     0.29388928555437877
    ],
    3
   ],
   [
    [
     0.4939758203676998,
     0.30015960870063557
    ],
    3
   ]
  ]
 },
 {
  "init_weights": [
   -2.6999999999999993,
   0.3
  ],
  "results": [
   [
    [
     0.4825617214752388,
     0.3020734147270437
    ],
    3
   ],
   [
    [
     0.4975079510055108,
     0.29185812366861075
    ],
    3
   ],
   [
    [
     0.4922481143064099,
     0.29131463595000157
    ],
    3
   ],
   [
    [
     0.49489414694177913,
     0.29523095399891586
    ],
    3
   ],
   [
    [
     0.48604459230536334,
     0.296747340408382
    ],
    3
   ],
   [
    [
     0.4867654191169952,
     0.2983281013817848
    ],
    3
   ],
   [
    [
     0.49163618596659,
     0.28945492619807084
    ],
    3
   ],
   [
    [
     0.492323355487263,
     0.2935431560195141
    ],
    3
   ],
   [
    [
     0.4952846855979679,
     0.29534733360830845
    ],
    3
   ],
   [
    [
     0.4960789134973822,
     0.29644105508595264
    ],
    3
   ],
   [
    [
     0.49426060001950534,
     0.296994467338069
    ],
    3
   ],
   [
    [
     0.4949549259165813,
     0.29709010385950596
    ],
    3
   ],
   [
    [
     0.49391600783837575,
     0.29310937537162296
    ],
    3
   ],
   [
    [
     0.4905195110288416,
     0.29388928555446114
    ],
    3
   ],
   [
    [
     0.49397582036758725,
     0.30015960869741554
    ],
    3
   ]
  ]
 },
 {
  "init_weights": [
   -2.5,
   0.3
  ],
  "results": [
   [
    [
     0.4825617214750906,
     0.3020734147265709
    ],
    3
   ],
   [
    [
     0.49750795100618117,
     0.2918581236698124
    ],
    3
   ],
   [
    [
     0.4922481143074631,
     0.2913146359517549
    ],
    3
   ],
   [
    [
     0.494894146941972,
     0.29523095399833843
    ],
    3
   ],
   [
    [
     0.48604459230402125,
     0.2967473404091551
    ],
    3
   ],
   [
    [
     0.4867654191197015,
     0.2983281013809867
    ],
    3
   ],
   [
    [
     0.49163618596682046,
     0.28945492619893126
    ],
    3
   ],
   [
    [
     0.4923233554878374,
     0.29354315602010683
    ],
    3
   ],
   [
    [
     0.49528468559597394,
     0.295347333607824
    ],
    3
   ],
   [
    [
     0.4960789134968543,
     0.29644105508617374
    ],
    3
   ],
   [
    [
     0.49426060002023126,
     0.2969944673380268
    ],
    3
   ],
   [
    [
     0.4949549259168684,
     0.29709010385964724
    ],
    3
   ],
   [
    [
     0.493916007839199,
     0.2931093753708715
    ],
    3
   ],
   [
    [
     0.49051951103052094,
     0.29388928555413935
    ],
    3
   ],
   [
    [
     0.49397582036841015,
     0.3001596086990704
    ],
    3
   ]
  ]
 },
 {
  "init_weights": [
   -2.3,
   0.3
  ],
  "results": [
   [
    [
     0.4825617214780461,
     0.3020734147277212
    ],
    3
   ],
   [
    [
     0.4975079510053035,
     0.29185812367025604
    ],
    3
   ],
   [
    [
     0.4922481143074605,
     0.2913146359497998
    ],
    3
   ],
   [
    [
     0.4948941469430668,
     0.2952309539993099
    ],
    3
   ],
   [
    [
     0.4860445923047302,
     0.2967473404090659
    ],
    3
   ],
   [
    [
     0.48676541911904003,
     0.2983281013817323
    ],
    3
   ],
   [
    [
     0.4916361859666233,
     0.28945492619849267
    ],
    3
   ],
   [
    [
     0.4923233554881881,
     0.293543156020209
    ],
    3
   ],
   [
    [
     0.49528468559637634,
     0.2953473336085754
    ],
    3
   ],
   [
    [
     0.49607891349810285,
     0.2964410550860766
    ],
    3
   ],
   [
    [
     0.4942606000206897,
     0.2969944673381
    ],
    3
   ],
   [
    [
     0.49495492591706386,
     0.2970901038591387
    ],
    3
   ],
   [
    [
     0.4939160078391083,
     0.2931093753702455
    ],
    3
   ],
   [
    [
     0.49051951103097324,
     0.2938892855549032
    ],
    3
   ],
   [
    [
     0.49397582036787646,
     0.30015960869998654
    ],
    3
   ]
  ]
 },
 {
  "init_weights": [
   -2.0999999999999996,
   0.3
  ],
  "results": [
   [
    [
     0.4825617214815414,
     0.30207341472747457
    ],
    3
   ],
   [
    [
     0.49750795101143613,
     0.291858123670668
    ],
    3
   ],
   [
    [
     0.49224811431310955,
     0.29131463595087476
    ],
    3
   ],
   [
    [
     0.49489414694841566,
     0.29523095399875515
    ],
    3
   ],
   [
    [
     0.48604459231009584,
     0.2967473404089433
    ],
    3
   ],
   [
    [
     0.48676541912392846,
     0.29832810138156274
    ],
    3
   ],
   [
    [
     0.4916361859707037,
     0.2894549261976974
    ],
    3
   ],
   [
    [
     0.4923233554925205,
     0.2935431560196862
    ],
    3
   ],
   [
    [
     0.49528468560202954,
     0.2953473336080933
    ],
    3
   ],
   [
    [
     0.49607891350246697,
     0.2964410550856976
    ],
    3
   ],
   [
    [
     0.4942606000261489,
     0.29699446733780877
    ],
    3
   ],
   [
    [
     0.4949549259232717,
     0.29709010385983536
    ],
    3
   ],
   [
    [
     0.4939160078453103,
     0.29310937537031684
    ],
    3
   ],
   [
    [
     0.49051951103509617,
     0.29388928555393484
    ],
    3
   ],
   [
    [
     0.493975820373565,
     0.3001596086992417
    ],
    3
   ]
  ]
 },
 {
  "init_weights": [
   -1.8999999999999995,
   0.3
  ],
  "results": [
   [
    [
     0.4825617214785596,
     0.3020734147272648
    ],
    3
   ],
   [
    [
     0.49750795100857026,
     0.2918581236699748
    ],
    3
   ],
   [
    [
     0.4922481143101881,
     0.2913146359504155
    ],
    3
   ],
   [
    [
     0.49489414694518247,
     0.29523095399914745
    ],
    3
   ],
   [
    [
     0.4860445923075767,
     0.29674734040880923
    ],
    3
   ],
   [
    [
     0.486765419121585,
     0.2983281013817468
    ],
    3
   ],
   [
    [
     0.4916361859685934,
     0.2894549261983414
    ],
    3
   ],
   [
    [
     0.4923233554898272,
     0.29354315602012915
    ],
    3
   ],
   [
    [
     0.49528468559892824,
     0.29534733360826
    ],
    3
   ],
   [
    [
     0.4960789135000161,
     0.29644105508564644
    ],
    3
   ],
   [
    [
     0.4942606000225398,
     0.296994467338004
    ],
    3
   ],
   [
    [
     0.49495492591964524,
     0.2970901038599765
    ],
    3
   ],
   [
    [
     0.49391600784247564,
     0.29310937537065074
    ],
    3
   ],
   [
    [
     0.4905195110332665,
     0.2938892855537895
    ],
    3
   ],
   [
    [
     0.49397582037097115,
     0.30015960869925534
    ],
    3
   ]
  ]
 },
 {
  "init_weights": [
   -1.6999999999999993,
   0.3
  ],
  "results": [
   [
    [
     0.48256172147689363,
     0.30207341472724475
    ],
    3
   ],
   [
    [
     0.508681181437594,
     0.2918170350461311
    ],
    2
   ],
   [
    [
     0.49224811430855075,
     0.2913146359500212
    ],
    3
   ],
   [
    [
     0.49489414694366884,
     0.2952309539993305
    ],
    3
   ],
   [
    [
     0.48604459230572505,
     0.29674734040890943
    ],
    3
   ],
   [
    [
     0.48676541911955734,
     0.29832810138140015
    ],
    3
   ],
   [
    [
     0.4916361859665499,
     0.289454926198076
    ],
    3
   ],
   [
    [
     0.4923233554883926,
     0.2935431560203057
    ],
    3
   ],
   [
    [
     0.4952846855975764,
     0.2953473336087345
    ],
    3
   ],
   [
    [
     0.5081046442389923,
     0.2964220796601522
    ],
    2
   ],
   [
    [
     0.4942606000206995,
     0.29699446733776325
    ],
    3
   ],
   [
    [
     0.4949549259172864,
     0.2970901038600877
    ],
    3
   ],
   [
    [
     0.49391600784039896,
     0.2931093753710887
    ],
    3
   ],
   [
    [
     0.4905195110306223,
     0.2938892855540388
    ],
    3
   ],
   [
    [
     0.4939758203686349,
     0.30015960869957076
    ],
    3
   ]
  ]
 },
 {
  "init_weights": [
   -1.5,
   0.3
  ],
  "results": [
   [
    [
     0.4825617214798189,
     0.3020734147270622
    ],
    3
   ],
   [
    [
     0.4975079510085924,
     0.2918581236697892
    ],
    3
   ],
   [
    [
     0.4922481143115489,
     0.29131463594973234
    ],
    3
   ],
   [
    [
     0.494894146946543,
     0.2952309539990395
    ],
    3
   ],
   [
    [
     0.4860445923083217,
     0.2967473404085715
    ],
    3
   ],
   [
    [
     0.48676541912241156,
     0.29832810138183014
    ],
    3
   ],
   [
    [
     0.49163618596951164,
     0.28945492619816465
    ],
    3
   ],
   [
    [
     0.49232335549008227,
     0.29354315601986963
    ],
    3
   ],
   [
    [
     0.49528468560020256,
     0.29534733360871673
    ],
    3
   ],
   [
    [
     0.4960789135008054,
     0.29644105508636387
    ],
    3
   ],
   [
    [
     0.4942606000232314,
     0.29699446733705437
    ],
    3
   ],
   [
    [
     0.494954925920646,
     0.29709010385978196
    ],
    3
   ],
   [
    [
     0.4939160078420177,
     0.29310937537053966
    ],
    3
   ],
   [
    [
     0.4905195110336088,
     0.2938892855540786
    ],
    3
   ],
   [
    [
     0.49397582037189836,
     0.3001596086993497
    ],
    3
   ]
  ]
 },
 {
  "init_weights": [
   -1.299999999999999,
   0.3
  ],
  "results": [
   [
    [
     0.48256172148176796,
     0.3020734147276083
    ],
    3
   ],
   [
    [
     0.4975079510116219,
     0.29185812367006475
    ],
    3
   ],
   [
    [
     0.49224811431392984,
     0.291314635950013
    ],
    3
   ],
   [
    [
     0.49489414694885586,
     0.29523095399930294
    ],
    3
   ],
   [
    [
     0.48604459231062347,
     0.29674734040887346
    ],
    3
   ],
   [
    [
     0.48676541912472754,
     0.29832810138232657
    ],
    3
   ],
   [
    [
     0.4916361859724173,
     0.2894549261985483
    ],
    3
   ],
   [
    [
     0.4923233554940226,
     0.2935431560204561
    ],
    3
   ],
   [
    [
     0.49528468560283745,
     0.2953473336085918
    ],
    3
   ],
   [
    [
     0.4960789135025493,
     0.2964410550849472
    ],
    3
   ],
   [
    [
     0.49426060002571104,
     0.2969944673371249
    ],
    3
   ],
   [
    [
     0.4949549259233455,
     0.29709010386011653
    ],
    3
   ],
   [
    [
     0.4939160078460075,
     0.29310937537084075
    ],
    3
   ],
   [
    [
     0.490519511035919,
     0.2938892855537394
    ],
    3
   ],
   [
    [
     0.4939758203737362,
     0.30015960869855784
    ],
    3
   ]
  ]
 },
 {
  "init_weights": [
   -1.0999999999999996,
   0.3
  ],
  "results": [
   [
    [
     0.4825617214838168,
     0.30207341472764915
    ],
    3
   ],
   [
    [
     0.4975079510154598,
     0.2918581236715544
    ],
    3
   ],
   [
    [
     0.4922481143167282,
     0.2913146359504166
    ],
    3
   ],
   [
    [
     0.49489414695018785,
     0.2952309539993543
    ],
    3
   ],
   [
    [
     0.48604459231463026,
     0.296747340409208
    ],
    3
   ],
   [
    [
     0.4867654191271744,
     0.2983281013816222
    ],
    3
   ],
   [
    [
     0.49163618597421355,
     0.28945492619735613
    ],
    3
   ],
   [
    [
     0.49232335549643447,
     0.2935431560202553
    ],
    3
   ],
   [
    [
     0.49528468560467576,
     0.2953473336084771
    ],
    3
   ],
   [
    [
     0.49607891350464794,
     0.2964410550857319
    ],
    3
   ],
   [
    [
     0.49426060002850186,
     0.2969944673372427
    ],
    3
   ],
   [
    [
     0.49495492592539425,
     0.29709010386016615
    ],
    3
   ],
   [
    [
     0.493916007848324,
     0.29310937537046744
    ],
    3
   ],
   [
    [
     0.4905195110382319,
     0.2938892855536907
    ],
    3
   ],
   [
    [
     0.4939758203755412,
     0.30015960869916364
    ],
    3
   ]
  ]
 },
 {
  "init_weights": [
   -0.9000000000000004,
   0.3
  ],
  "results": [
   [
    [
     0.48256172143889664,
     0.3020734147237186
    ],
    2
   ],
   [
    [
     0.4975079509647349,
     0.2918581236730828
    ],
    2
   ],
   [
    [
     0.4922481142675301,
     0.291314635949395
    ],
    2
   ],
   [
    [
     0.4948941469049375,
     0.29523095399806554
    ],
    2
   ],
   [
    [
     0.4860445922619818,
     0.2967473404133344
    ],
    2
   ],
   [
    [
     0.48676541907944393,
     0.29832810138503835
    ],
    2
   ],
   [
    [
     0.49163618592773295,
     0.28945492619503504
    ],
    2
   ],
   [
    [
     0.49232335544735495,
     0.2935431560200334
    ],
    2
   ],
   [
    [
     0.49528468555547,
     0.29534733360936266
    ],
    2
   ],
   [
    [
     0.49607891346001143,
     0.296441055082771
    ],
    2
   ],
   [
    [
     0.49426059997834626,
     0.296994467336647
    ],
    2
   ],
   [
    [
     0.4949549258743797,
     0.2970901038603721
    ],
    2
   ],
   [
    [
     0.49391600780008793,
     0.2931093753722392
    ],
    2
   ],
   [
    [
     0.4905195109891789,
     0.2938892855538078
    ],
    2
   ],
   [
    [
     0.49397582032794984,
     0.3001596086997613
    ],
    2
   ]
  ]
 },
 {
  "init_weights": [
   -0.6999999999999993,
   0.3
  ],
  "results": [
   [
    [
     0.4825617214395055,
     0.30207341472634314
    ],
    2
   ],
   [
    [
     0.49750795096835354,
     0.2918581236718277
    ],
    2
   ],
   [
    [
     0.492248114274646,
     0.29131463595242146
    ],
    2
   ],
   [
    [
     0.4948941469070629,
     0.295230954000224
    ],
    2
   ],
   [
    [
     0.48604459227081964,
     0.2967473404111253
    ],
    2
   ],
   [
    [
     0.4867654190834514,
     0.29832810138172366
    ],
    2
   ],
   [
    [
     0.4916361859300449,
     0.2894549261992631
    ],
    2
   ],
   [
    [
     0.49232335545313743,
     0.2935431560193859
    ],
    2
   ],
   [
    [
     0.4952846855638986,
     0.29534733360714843
    ],
    2
   ],
   [
    [
     0.49607891346416455,
     0.2964410550830932
    ],
    2
   ],
   [
    [
     0.494260599985886,
     0.2969944673425282
    ],
    2
   ],
   [
    [
     0.49495492588227075,
     0.297090103861675
    ],
    2
   ],
   [
    [
     0.49391600780748446,
     0.29310937537124604
    ],
    2
   ],
   [
    [
     0.4905195109961591,
     0.29388928555544547
    ],
    2
   ],
   [
    [
     0.493975820333556,
     0.30015960869835817
    ],
    2
   ]
  ]
 },
 {
  "init_weights": [
   -0.5,
   0.3
  ],
  "results": [
   [
    [
     0.4825617214719762,
     0.30207341472696564
    ],
    2
   ],
   [
    [
     0.4975079510058963,
     0.29185812367076047
    ],
    2
   ],
   [
    [
     0.4922481143064277,
     0.29131463594839235
    ],
    2
   ],
   [
    [
     0.49489414694143363,
     0.29523095399900084
    ],
    2
   ],
   [
    [
     0.48604459230143715,
     0.2967473404058631
    ],
    2
   ],
   [
    [
     0.4867654191210602,
     0.29832810138211574
    ],
    2
   ],
   [
    [
     0.49163618596082737,
     0.28945492619754754
    ],
    2
   ],
   [
    [
     0.49232335548559725,
     0.29354315602163755
    ],
    2
   ],
   [
    [
     0.49528468559674554,
     0.2953473336073386
    ],
    2
   ],
   [
    [
     0.49607891349779154,
     0.2964410550862428
    ],
    2
   ],
   [
    [
     0.4942606000188632,
     0.29699446733526347
    ],
    2
   ],
   [
    [
     0.49495492591701873,
     0.2970901038595009
    ],
    2
   ],
   [
    [
     0.4939160078372491,
     0.2931093753692802
    ],
    2
   ],
   [
    [
     0.4905195110305939,
     0.29388928555516225
    ],
    2
   ],
   [
    [
     0.49397582036762144,
     0.3001596086999631
    ],
    2
   ]
  ]
 },
 {
  "init_weights": [
   -0.29999999999999893,
   0.3
  ],
  "results": [
   [
    [
     0.4825617214979684,
     0.3020734147260062
    ],
    2
   ],
   [
    [
     0.4975079510292433,
     0.2918581236684217
    ],
    2
   ],
   [
    [
     0.49224811432881643,
     0.2913146359484134
    ],
    2
   ],
   [
    [
     0.4948941469646795,
     0.2952309539992289
    ],
    2
   ],
   [
    [
     0.486044592325765,
     0.29674734040839923
    ],
    2
   ],
   [
    [
     0.48676541914290883,
     0.2983281013811091
    ],
    2
   ],
   [
    [
     0.49163618598746894,
     0.2894549261973901
    ],
    2
   ],
   [
    [
     0.49232335550816475,
     0.2935431560191551
    ],
    2
   ],
   [
    [
     0.49528468561764294,
     0.2953473336083958
    ],
    2
   ],
   [
    [
     0.49607891351831224,
     0.2964410550861967
    ],
    2
   ],
   [
    [
     0.4942606000405685,
     0.2969944673385348
    ],
    2
   ],
   [
    [
     0.4949549259358559,
     0.29709010385950413
    ],
    2
   ],
   [
    [
     0.49391600786043777,
     0.2931093753707407
    ],
    2
   ],
   [
    [
     0.4905195110541015,
     0.2938892855566581
    ],
    2
   ],
   [
    [
     0.4939758203881197,
     0.3001596087004714
    ],
    2
   ]
  ]
 },
 {
  "init_weights": [
   -0.09999999999999964,
   0.3
  ],
  "results": [
   [
    [
     0.4825617214776341,
     0.3020734147275037
    ],
    2
   ],
   [
    [
     0.49750795100445466,
     0.2918581236690723
    ],
    2
   ],
   [
    [
     0.49224811430550675,
     0.29131463594987733
    ],
    2
   ],
   [
    [
     0.49489414694318223,
     0.2952309539985083
    ],
    2
   ],
   [
    [
     0.48604459230521346,
     0.2967473404092867
    ],
    2
   ],
   [
    [
     0.48676541911685456,
     0.2983281013807163
    ],
    2
   ],
   [
    [
     0.4916361859659921,
     0.28945492619864144
    ],
    2
   ],
   [
    [
     0.4923233554871256,
     0.29354315602029624
    ],
    2
   ],
   [
    [
     0.49528468559594163,
     0.2953473336094585
    ],
    2
   ],
   [
    [
     0.49607891349706756,
     0.2964410550856348
    ],
    2
   ],
   [
    [
     0.49426060001977623,
     0.2969944673378033
    ],
    2
   ],
   [
    [
     0.4949549259157533,
     0.2970901038601338
    ],
    2
   ],
   [
    [
     0.493916007839883,
     0.2931093753713979
    ],
    2
   ],
   [
    [
     0.4905195110310909,
     0.293889285555435
    ],
    2
   ],
   [
    [
     0.49397582036797405,
     0.30015960870004665
    ],
    2
   ]
  ]
 },
 {
  "init_weights": [
   0.10000000000000142,
   0.3
  ],
  "results": [
   [
    [
     0.48256172147591697,
     0.30207341472803845
    ],
    2
   ],
   [
    [
     0.4975079510057853,
     0.29185812366964886
    ],
    2
   ],
   [
    [
     0.49224811430771404,
     0.29131463595005314
    ],
    2
   ],
   [
    [
     0.4948941469422815,
     0.295230954000003
    ],
    2
   ],
   [
    [
     0.4860445923038404,
     0.2967473404089397
    ],
    2
   ],
   [
    [
     0.48676541911867477,
     0.29832810138194177
    ],
    2
   ],
   [
    [
     0.4916361859650321,
     0.28945492619814533
    ],
    2
   ],
   [
    [
     0.49232335548745193,
     0.29354315601882713
    ],
    2
   ],
   [
    [
     0.4952846855970356,
     0.2953473336078845
    ],
    2
   ],
   [
    [
     0.49607891349825955,
     0.2964410550865518
    ],
    2
   ],
   [
    [
     0.4942606000202938,
     0.2969944673386411
    ],
    2
   ],
   [
    [
     0.49495492591706525,
     0.29709010385921425
    ],
    2
   ],
   [
    [
     0.4939160078392301,
     0.29310937537033366
    ],
    2
   ],
   [
    [
     0.4905195110298178,
     0.29388928555438143
    ],
    2
   ],
   [
    [
     0.49397582036719395,
     0.300159608699906
    ],
    2
   ]
  ]
 },
 {
  "init_weights": [
   0.3000000000000007,
   0.3
  ],
  "results": [
   [
    [
     0.4825617214822916,
     0.3020734147272985
    ],
    2
   ],
   [
    [
     0.4975079510116214,
     0.2918581236689053
    ],
    2
   ],
   [
    [
     0.4922481143133495,
     0.2913146359495058
    ],
    2
   ],
   [
    [
     0.49489414694801626,
     0.29523095399989996
    ],
    2
   ],
   [
    [
     0.4860445923089258,
     0.2967473404089676
    ],
    2
   ],
   [
    [
     0.48676541912440047,
     0.29832810138198607
    ],
    2
   ],
   [
    [
     0.491636185971168,
     0.2894549261987509
    ],
    2
   ],
   [
    [
     0.49232335549268424,
     0.2935431560197362
    ],
    2
   ],
   [
    [
     0.49528468560195327,
     0.2953473336079334
    ],
    2
   ],
   [
    [
     0.49607891350302413,
     0.2964410550862984
    ],
    2
   ],
   [
    [
     0.4942606000253681,
     0.2969944673376409
    ],
    2
   ],
   [
    [
     0.49495492592218815,
     0.2970901038595055
    ],
    2
   ],
   [
    [
     0.49391600784520556,
     0.29310937537107223
    ],
    2
   ],
   [
    [
     0.4905195110354857,
     0.29388928555335403
    ],
    2
   ],
   [
    [
     0.4939758203741747,
     0.3001596086989929
    ],
    2
   ]
  ]
 },
 {
  "init_weights": [
   0.5,
   0.3
  ],
  "results": [
   [
    [
     0.4825617214762985,
     0.30207341472726446
    ],
    2
   ],
   [
    [
     0.5,
     0.3
    ],
    1
   ],
   [
    [
     0.5,
     0.3
    ],
    1
   ],
   [
    [
     0.5,
     0.3
    ],
    1
   ],
   [
    [
     0.4860445923050142,
     0.2967473404091448
    ],
    2
   ],
   [
    [
     0.4867654191195049,
     0.29832810138172333
    ],
    2
   ],
   [
    [
     0.49163618596621345,
     0.289454926198522
    ],
    2
   ],
   [
    [
     0.5,
     0.3
    ],
    1
   ],
   [
    [
     0.5,
     0.3
    ],
    1
   ],
   [
    [
     0.5,
     0.3
    ],
    1
   ],
   [
    [
     0.5,
     0.3
    ],
    1
   ],
   [
    [
     0.5,
     0.3
    ],
    1
   ],
   [
    [
     0.5,
     0.3
    ],
    1
   ],
   [
    [
     0.5,
     0.3
    ],
    1
   ],
   [
    [
     0.5,
     0.3
    ],
    1
   ]
  ]
 },
 {
  "init_weights": [
   0.7000000000000011,
   0.3
  ],
  "results": [
   [
    [
     0.48256172148248877,
     0.30207341472745464
    ],
    2
   ],
   [
    [
     0.49750795101105383,
     0.29185812366918856
    ],
    2
   ],
   [
    [
     0.4922481143144576,
     0.2913146359502478
    ],
    2
   ],
   [
    [
     0.49489414694899275,
     0.2952309539992537
    ],
    2
   ],
   [
    [
     0.48604459231225905,
     0.2967473404087763
    ],
    2
   ],
   [
    [
     0.4867654191249562,
     0.2983281013807781
    ],
    2
   ],
   [
    [
     0.4916361859723609,
     0.28945492619808966
    ],
    2
   ],
   [
    [
     0.49232335549326234,
     0.2935431560192907
    ],
    2
   ],
   [
    [
     0.4952846856015417,
     0.2953473336084572
    ],
    2
   ],
   [
    [
     0.4960789135037964,
     0.2964410550862991
    ],
    2
   ],
   [
    [
     0.494260600026017,
     0.2969944673374428
    ],
    2
   ],
   [
    [
     0.4949549259241338,
     0.29709010386027235
    ],
    2
   ],
   [
    [
     0.4939160078445648,
     0.29310937537116516
    ],
    2
   ],
   [
    [
     0.49051951103635977,
     0.29388928555492266
    ],
    2
   ],
   [
    [
     0.4939758203747375,
     0.3001596086993466
    ],
    2
   ]
  ]
 },
 {
  "init_weights": [
   0.9000000000000004,
   0.3
  ],
  "results": [
   [
    [
     0.4825617214869195,
     0.30207341472717575
    ],
    2
   ],
   [
    [
     0.497507951018096,
     0.2918581236683847
    ],
    2
   ],
   [
    [
     0.49224811431906723,
     0.29131463594964163
    ],
    2
   ],
   [
    [
     0.49489414695319867,
     0.29523095399974036
    ],
    2
   ],
   [
    [
     0.4860445923165003,
     0.2967473404087341
    ],
    2
   ],
   [
    [
     0.48676541913226135,
     0.2983281013808513
    ],
    2
   ],
   [
    [
     0.49163618597927194,
     0.2894549261997971
    ],
    2
   ],
   [
    [
     0.4923233554978019,
     0.2935431560205918
    ],
    2
   ],
   [
    [
     0.49528468560909505,
     0.2953473336085335
    ],
    2
   ],
   [
    [
     0.49607891350872574,
     0.296441055083992
    ],
    2
   ],
   [
    [
     0.49426060003198014,
     0.2969944673367103
    ],
    2
   ],
   [
    [
     0.49495492593067303,
     0.29709010386044743
    ],
    2
   ],
   [
    [
     0.4939160078514049,
     0.29310937537106346
    ],
    2
   ],
   [
    [
     0.4905195110440499,
     0.293889285554406
    ],
    2
   ],
   [
    [
     0.4939758203792403,
     0.3001596086996904
    ],
    2
   ]
  ]
 },
 {
  "init_weights": [
   1.1000000000000014,
   0.3
  ],
  "results": [
   [
    [
     0.482561721427454,
     0.30207341472663135
    ],
    2
   ],
   [
    [
     0.49750795095416134,
     0.2918581236696928
    ],
    2
   ],
   [
    [
     0.492248114258825,
     0.2913146359511598
    ],
    2
   ],
   [
    [
     0.4948941468956203,
     0.29523095399964605
    ],
    2
   ],
   [
    [
     0.48604459225525165,
     0.2967473404078744
    ],
    2
   ],
   [
    [
     0.48676541906895265,
     0.298328101381199
    ],
    2
   ],
   [
    [
     0.49163618591939384,
     0.2894549262011637
    ],
    2
   ],
   [
    [
     0.49232335543800776,
     0.29354315601938924
    ],
    2
   ],
   [
    [
     0.4952846855481208,
     0.2953473336076289
    ],
    2
   ],
   [
    [
     0.49607891344932065,
     0.2964410550849758
    ],
    2
   ],
   [
    [
     0.4942605999684091,
     0.29699446733807777
    ],
    2
   ],
   [
    [
     0.4949549258704111,
     0.29709010385854284
    ],
    2
   ],
   [
    [
     0.49391600779116207,
     0.2931093753707505
    ],
    2
   ],
   [
    [
     0.4905195109807585,
     0.29388928555381844
    ],
    2
   ],
   [
    [
     0.4939758203176936,
     0.30015960869858366
    ],
    2
   ]
  ]
 },
 {
  "init_weights": [
   1.3000000000000007,
   0.3
  ],
  "results": [
   [
    [
     0.48256172141118014,
     0.30207341472632787
    ],
    2
   ],
   [
    [
     0.4975079509407593,
     0.2918581236676132
    ],
    2
   ],
   [
    [
     0.49224811423671655,
     0.2913146359469089
    ],
    2
   ],
   [
    [
     0.49489414687507116,
     0.2952309539977557
    ],
    2
   ],
   [
    [
     0.48604459223879815,
     0.29674734040817735
    ],
    2
   ],
   [
    [
     0.4867654190547557,
     0.29832810138139154
    ],
    2
   ],
   [
    [
     0.4916361858975862,
     0.289454926198151
    ],
    2
   ],
   [
    [
     0.4923233554215425,
     0.2935431560195567
    ],
    2
   ],
   [
    [
     0.4952846855346975,
     0.29534733360895277
    ],
    2
   ],
   [
    [
     0.4960789134323489,
     0.2964410550841523
    ],
    2
   ],
   [
    [
     0.4942605999559322,
     0.2969944673382904
    ],
    2
   ],
   [
    [
     0.4949549258520479,
     0.29709010386055634
    ],
    2
   ],
   [
    [
     0.49391600777444744,
     0.2931093753685486
    ],
    2
   ],
   [
    [
     0.49051951096457136,
     0.2938892855528912
    ],
    2
   ],
   [
    [
     0.49397582030426535,
     0.3001596086988755
    ],
    2
   ]
  ]
 },
 {
  "init_weights": [
   1.5,
   0.3
  ],
  "results": [
   [
    [
     0.4825617213943274,
     0.30207341472555116
    ],
    2
   ],
   [
    [
     0.4975079509250704,
     0.29185812367004804
    ],
    2
   ],
   [
    [
     0.49224811422377157,
     0.29131463595405144
    ],
    2
   ],
   [
    [
     0.49489414686378486,
     0.29523095400124344
    ],
    2
   ],
   [
    [
     0.4860445922195997,
     0.29674734040736983
    ],
    2
   ],
   [
    [
     0.4867654190325452,
     0.29832810138027277
    ],
    2
   ],
   [
    [
     0.49163618588264413,
     0.28945492619976404
    ],
    2
   ],
   [
    [
     0.4923233554034365,
     0.29354315602193864
    ],
    2
   ],
   [
    [
     0.4952846855124782,
     0.29534733360699267
    ],
    2
   ],
   [
    [
     0.49607891340912635,
     0.2964410550854161
    ],
    2
   ],
   [
    [
     0.49426059993370997,
     0.29699446733773655
    ],
    2
   ],
   [
    [
     0.4949549258378969,
     0.29709010386243667
    ],
    2
   ],
   [
    [
     0.493916007755695,
     0.2931093753707512
    ],
    2
   ],
   [
    [
     0.49051951094832047,
     0.2938892855507843
    ],
    2
   ],
   [
    [
     0.49397582028757037,
     0.30015960870041464
    ],
    2
   ]
  ]
 },
 {
  "init_weights": [
   1.700000000000001,
   0.3
  ],
  "results": [
   [
    [
     0.4825617213741964,
     0.30207341472003046
    ],
    2
   ],
   [
    [
     0.4975079509042002,
     0.29185812367156155
    ],
    2
   ],
   [
    [
     0.49224811420632,
     0.29131463595498996
    ],
    2
   ],
   [
    [
     0.49489414684712196,
     0.29523095400045346
    ],
    2
   ],
   [
    [
     0.486044592196337,
     0.2967473404072806
    ],
    2
   ],
   [
    [
     0.4867654190244899,
     0.2983281013837637
    ],
    2
   ],
   [
    [
     0.4916361858666116,
     0.2894549261988566
    ],
    2
   ],
   [
    [
     0.49232335538669836,
     0.29354315601693043
    ],
    2
   ],
   [
    [
     0.49528468549479765,
     0.2953473336047257
    ],
    2
   ],
   [
    [
     0.4960789134009902,
     0.2964410550829681
    ],
    2
   ],
   [
    [
     0.49426059992484284,
     0.29699446734017404
    ],
    2
   ],
   [
    [
     0.4949549258139503,
     0.29709010385694223
    ],
    2
   ],
   [
    [
     0.4939160077405629,
     0.29310937536837844
    ],
    2
   ],
   [
    [
     0.49051951092980506,
     0.2938892855516819
    ],
    2
   ],
   [
    [
     0.493975820273596,
     0.30015960870262426
    ],
    2
   ]
  ]
 },
 {
  "init_weights": [
   1.9000000000000004,
   0.3
  ],
  "results": [
   [
    [
     0.4825617213560274,
     0.3020734147273983
    ],
    2
   ],
   [
    [
     0.49750795089137956,
     0.29185812366662833
    ],
    2
   ],
   [
    [
     0.4922481141829298,
     0.2913146359493237
    ],
    2
   ],
   [
    [
     0.49489414683402844,
     0.29523095399764115
    ],
    2
   ],
   [
    [
     0.48604459218441787,
     0.2967473404036093
    ],
    2
   ],
   [
    [
     0.48676541899921943,
     0.2983281013834174
    ],
    2
   ],
   [
    [
     0.4916361858536802,
     0.28945492619843227
    ],
    2
   ],
   [
    [
     0.4923233553651072,
     0.2935431560119219
    ],
    2
   ],
   [
    [
     0.49528468548680205,
     0.2953473336114048
    ],
    2
   ],
   [
    [
     0.49607891337966326,
     0.29644105508650886
    ],
    2
   ],
   [
    [
     0.4942605999097607,
     0.29699446733637913
    ],
    2
   ],
   [
    [
     0.4949549258013235,
     0.2970901038645088
    ],
    2
   ],
   [
    [
     0.4939160077192386,
     0.29310937536663956
    ],
    2
   ],
   [
    [
     0.4905195109131575,
     0.2938892855476493
    ],
    2
   ],
   [
    [
     0.4939758202573763,
     0.30015960870535663
    ],
    2
   ]
  ]
 },
 {
  "init_weights": [
   2.1000000000000014,
   0.3
  ],
  "results": [
   [
    [
     0.4825617214765601,
     0.3020734147269958
    ],
    3
   ],
   [
    [
     0.49750795100584155,
     0.2918581236706246
    ],
    3
   ],
   [
    [
     0.49224811430747983,
     0.291314635949922
    ],
    3
   ],
   [
    [
     0.49489414694270506,
     0.2952309539994321
    ],
    3
   ],
   [
    [
     0.4860445923045811,
     0.2967473404085466
    ],
    3
   ],
   [
    [
     0.4867654191184384,
     0.2983281013815242
    ],
    3
   ],
   [
    [
     0.4916361859647703,
     0.2894549261981979
    ],
    3
   ],
   [
    [
     0.4923233554877884,
     0.29354315601981257
    ],
    3
   ],
   [
    [
     0.495284685597247,
     0.2953473336093849
    ],
    3
   ],
   [
    [
     0.4960789134980603,
     0.29644105508608515
    ],
    3
   ],
   [
    [
     0.49426060002017325,
     0.29699446733784574
    ],
    3
   ],
   [
    [
     0.4949549259170375,
     0.29709010386024176
    ],
    3
   ],
   [
    [
     0.49391600783992284,
     0.29310937537033566
    ],
    3
   ],
   [
    [
     0.4905195110297883,
     0.29388928555468613
    ],
    3
   ],
   [
    [
     0.49397582036774035,
     0.3001596086997477
    ],
    3
   ]
  ]
 },
 {
  "init_weights": [
   2.3000000000000007,
   0.3
  ],
  "results": [
   [
    [
     0.48256172148121235,
     0.3020734147266711
    ],
    3
   ],
   [
    [
     0.49750795101109235,
     0.29185812367049313
    ],
    3
   ],
   [
    [
     0.4922481143136432,
     0.29131463595033663
    ],
    3
   ],
   [
    [
     0.4948941469475072,
     0.29523095399934995
    ],
    3
   ],
   [
    [
     0.4860445923100332,
     0.296747340408269
    ],
    3
   ],
   [
    [
     0.48676541912465354,
     0.29832810138217714
    ],
    3
   ],
   [
    [
     0.49163618597145553,
     0.28945492619834307
    ],
    3
   ],
   [
    [
     0.4923233554929611,
     0.29354315602006487
    ],
    3
   ],
   [
    [
     0.49528468560264916,
     0.29534733360877274
    ],
    3
   ],
   [
    [
     0.4960789135019408,
     0.29644105508540136
    ],
    3
   ],
   [
    [
     0.4942606000265504,
     0.2969944673378709
    ],
    3
   ],
   [
    [
     0.49495492592219564,
     0.29709010385971435
    ],
    3
   ],
   [
    [
     0.49391600784478085,
     0.29310937537064075
    ],
    3
   ],
   [
    [
     0.4905195110356807,
     0.29388928555385946
    ],
    3
   ],
   [
    [
     0.49397582037321275,
     0.30015960869910724
    ],
    3
   ]
  ]
 },
 {
  "init_weights": [
   2.5,
   0.3
  ],
  "results": [
   [
    [
     0.4825617214787628,
     0.30207341472714033
    ],
    3
   ],
   [
    [
     0.49750795100934897,
     0.2918581236700199
    ],
    3
   ],
   [
    [
     0.4922481143103644,
     0.29131463594988855
    ],
    3
   ],
   [
    [
     0.49489414694578987,
     0.29523095399939003
    ],
    3
   ],
   [
    [
     0.48604459230783664,
     0.2967473404091516
    ],
    3
   ],
   [
    [
     0.4867654191222785,
     0.2983281013812726
    ],
    3
   ],
   [
    [
     0.49163618596898384,
     0.28945492619845364
    ],
    3
   ],
   [
    [
     0.49232335549050854,
     0.2935431560205294
    ],
    3
   ],
   [
    [
     0.4952846855996763,
     0.2953473336082607
    ],
    3
   ],
   [
    [
     0.49607891350004013,
     0.2964410550858763
    ],
    3
   ],
   [
    [
     0.49426060002331046,
     0.2969944673377072
    ],
    3
   ],
   [
    [
     0.4949549259198921,
     0.29709010386021156
    ],
    3
   ],
   [
    [
     0.49391600784246964,
     0.29310937537058607
    ],
    3
   ],
   [
    [
     0.490519511032972,
     0.2938892855544996
    ],
    3
   ],
   [
    [
     0.49397582037105714,
     0.30015960869929686
    ],
    3
   ]
  ]
 },
 {
  "init_weights": [
   2.700000000000001,
   0.3
  ],
  "results": [
   [
    [
     0.4811662383579982,
     0.302074672288183
    ],
    2
   ],
   [
    [
     0.48877379048038705,
     0.29182560001021257
    ],
    2
   ],
   [
    [
     0.486028985904825,
     0.29129000784200065
    ],
    2
   ],
   [
    [
     0.48742439906919,
     0.2952147170445067
    ],
    2
   ],
   [
    [
     0.4829765595481472,
     0.29674275051241655
    ],
    2
   ],
   [
    [
     0.48349835895815074,
     0.29832556640402713
    ],
    2
   ],
   [
    [
     0.48577439778480747,
     0.28942684497071514
    ],
    2
   ],
   [
    [
     0.48608041089311804,
     0.2935245636136179
    ],
    2
   ],
   [
    [
     0.4876513973874239,
     0.2953310867645744
    ],
    2
   ],
   [
    [
     0.4878917526559432,
     0.29642748871271607
    ],
    2
   ],
   [
    [
     0.4871708289333947,
     0.29698451795337766
    ],
    2
   ],
   [
    [
     0.48743478767239745,
     0.29708001772720943
    ],
    2
   ],
   [
    [
     0.4869601030194297,
     0.2930873750698126
    ],
    2
   ],
   [
    [
     0.48516662460385307,
     0.29387434025148657
    ],
    2
   ],
   [
    [
     0.4870727388359555,
     0.30016020314190345
    ],
    2
   ]
  ]
 },
 {
  "init_weights": [
   2.9000000000000004,
   0.3
  ],
  "results": [
   [
    [
     0.48256172147954257,
     0.3020734147277436
    ],
    3
   ],
   [
    [
     0.4975079510085663,
     0.2918581236700643
    ],
    3
   ],
   [
    [
     0.4922481143113462,
     0.29131463595032364
    ],
    3
   ],
   [
    [
     0.494894146945552,
     0.2952309539995143
    ],
    3
   ],
   [
    [
     0.4860445923082255,
     0.2967473404090194
    ],
    3
   ],
   [
    [
     0.4867654191226106,
     0.29832810138128446
    ],
    3
   ],
   [
    [
     0.49163618596912906,
     0.2894549261984947
    ],
    3
   ],
   [
    [
     0.49232335549049433,
     0.29354315602055725
    ],
    3
   ],
   [
    [
     0.4952846856000668,
     0.2953473336087888
    ],
    3
   ],
   [
    [
     0.4960789135009861,
     0.2964410550857734
    ],
    3
   ],
   [
    [
     0.49426060002296845,
     0.29699446733739504
    ],
    3
   ],
   [
    [
     0.49495492592012896,
     0.2970901038602567
    ],
    3
   ],
   [
    [
     0.49391600784210116,
     0.2931093753710074
    ],
    3
   ],
   [
    [
     0.49051951103336633,
     0.2938892855541028
    ],
    3
   ],
   [
    [
     0.4939758203708207,
     0.3001596086994641
    ],
    3
   ]
  ]
 },
 {
  "init_weights": [
   3.1000000000000014,
   0.3
  ],
  "results": [
   [
    [
     0.4825617214816408,
     0.3020734147263334
    ],
    3
   ],
   [
    [
     0.4975079510118775,
     0.29185812366918873
    ],
    3
   ],
   [
    [
     0.4922481143136535,
     0.2913146359503208
    ],
    3
   ],
   [
    [
     0.49489414694819456,
     0.29523095399953037
    ],
    3
   ],
   [
    [
     0.48604459231038455,
     0.29674734040905526
    ],
    3
   ],
   [
    [
     0.48676541912437005,
     0.2983281013814653
    ],
    3
   ],
   [
    [
     0.4916361859713482,
     0.289454926198318
    ],
    3
   ],
   [
    [
     0.4923233554947949,
     0.2935431560210503
    ],
    3
   ],
   [
    [
     0.4952846856017583,
     0.29534733360875526
    ],
    3
   ],
   [
    [
     0.4960789135035102,
     0.2964410550863674
    ],
    3
   ],
   [
    [
     0.49426060002646444,
     0.2969944673377636
    ],
    3
   ],
   [
    [
     0.494954925922571,
     0.2970901038596247
    ],
    3
   ],
   [
    [
     0.49391600784617107,
     0.29310937537072773
    ],
    3
   ],
   [
    [
     0.49051951103619446,
     0.2938892855541958
    ],
    3
   ],
   [
    [
     0.49397582037354126,
     0.3001596087004226
    ],
    3
   ]
  ]
 },
 {
  "init_weights": [
   3.3000000000000007,
   0.3
  ],
  "results": [
   [
    [
     0.4825617214855886,
     0.30207341472803667
    ],
    3
   ],
   [
    [
     0.497507951014731,
     0.2918581236699987
    ],
    3
   ],
   [
    [
     0.49224811431774984,
     0.29131463594970997
    ],
    3
   ],
   [
    [
     0.4948941469534663,
     0.29523095399930444
    ],
    3
   ],
   [
    [
     0.4860445923143371,
     0.2967473404103314
    ],
    3
   ],
   [
    [
     0.48676541912799665,
     0.29832810138144183
    ],
    3
   ],
   [
    [
     0.4916361859751846,
     0.2894549261975561
    ],
    3
   ],
   [
    [
     0.49232335549595974,
     0.2935431560201219
    ],
    3
   ],
   [
    [
     0.4952846856064388,
     0.29534733360806664
    ],
    3
   ],
   [
    [
     0.49607891350534306,
     0.29644105508542534
    ],
    3
   ],
   [
    [
     0.49426060002925803,
     0.29699446733844836
    ],
    3
   ],
   [
    [
     0.4949549259265479,
     0.29709010385967727
    ],
    3
   ],
   [
    [
     0.4939160078480179,
     0.29310937537002135
    ],
    3
   ],
   [
    [
     0.49051951103994396,
     0.29388928555392707
    ],
    3
   ],
   [
    [
     0.4939758203763668,
     0.3001596086994857
    ],
    3
   ]
  ]
 },
 {
  "init_weights": [
   3.5,
   0.3
  ],
  "results": [
   [
    [
     0.4825617214898593,
     0.3020734147277444
    ],
    3
   ],
   [
    [
     0.4975079510190686,
     0.2918581236684706
    ],
    3
   ],
   [
    [
     0.49224811432025095,
     0.2913146359490971
    ],
    3
   ],
   [
    [
     0.49489414695466416,
     0.2952309539989399
    ],
    3
   ],
   [
    [
     0.4860445923167891,
     0.2967473404100569
    ],
    3
   ],
   [
    [
     0.4867654191301616,
     0.29832810138131494
    ],
    3
   ],
   [
    [
     0.49163618597842196,
     0.2894549261985444
    ],
    3
   ],
   [
    [
     0.49232335550063444,
     0.293543156020181
    ],
    3
   ],
   [
    [
     0.4952846856083706,
     0.2953473336089056
    ],
    3
   ],
   [
    [
     0.4960789135081285,
     0.2964410550854426
    ],
    3
   ],
   [
    [
     0.4942606000319207,
     0.29699446733831053
    ],
    3
   ],
   [
    [
     0.4949549259300635,
     0.2970901038584939
    ],
    3
   ],
   [
    [
     0.4939160078534237,
     0.29310937536995885
    ],
    3
   ],
   [
    [
     0.49051951104281233,
     0.29388928555385696
    ],
    3
   ],
   [
    [
     0.4939758203805366,
     0.3001596086989943
    ],
    3
   ]
  ]
 },
 {
  "init_weights": [
   3.700000000000001,
   0.3
  ],
  "results": [
   [
    [
     0.48256172143146847,
     0.3020734147282303
    ],
    3
   ],
   [
    [
     0.49750795096131495,
     0.29185812367099834
    ],
    3
   ],
   [
    [
     0.492248114264358,
     0.29131463594801144
    ],
    3
   ],
   [
    [
     0.4948941468979856,
     0.29523095399930166
    ],
    3
   ],
   [
    [
     0.48604459226099217,
     0.2967473404083234
    ],
    3
   ],
   [
    [
     0.48676541907713666,
     0.2983281013810969
    ],
    3
   ],
   [
    [
     0.491636185922278,
     0.2894549261983303
    ],
    3
   ],
   [
    [
     0.49232335544503236,
     0.2935431560193264
    ],
    3
   ],
   [
    [
     0.4952846855533337,
     0.29534733360768606
    ],
    3
   ],
   [
    [
     0.496078913455148,
     0.29644105508641827
    ],
    3
   ],
   [
    [
     0.49426059997726135,
     0.29699446733716833
    ],
    3
   ],
   [
    [
     0.4949549258730862,
     0.2970901038595783
    ],
    3
   ],
   [
    [
     0.49391600779666633,
     0.29310937536828097
    ],
    3
   ],
   [
    [
     0.4905195109870253,
     0.2938892855536946
    ],
    3
   ],
   [
    [
     0.49397582032558374,
     0.30015960870176395
    ],
    3
   ]
  ]
 },
 {
  "init_weights": [
   3.9000000000000004,
   0.3
  ],
  "results": [
   [
    [
     0.48256172142308973,
     0.3020734147252578
    ],
    3
   ],
   [
    [
     0.4975079509528437,
     0.2918581236717527
    ],
    3
   ],
   [
    [
     0.49224811425407333,
     0.2913146359499675
    ],
    3
   ],
   [
    [
     0.49489414689049704,
     0.2952309539998724
    ],
    3
   ],
   [
    [
     0.48604459225109076,
     0.29674734040876816
    ],
    3
   ],
   [
    [
     0.48676541906718995,
     0.29832810137903953
    ],
    3
   ],
   [
    [
     0.4916361859139968,
     0.2894549261968196
    ],
    3
   ],
   [
    [
     0.492323355433838,
     0.293543156019255
    ],
    3
   ],
   [
    [
     0.49528468554118454,
     0.2953473336063659
    ],
    3
   ],
   [
    [
     0.49607891344361366,
     0.2964410550852258
    ],
    3
   ],
   [
    [
     0.49426059996606875,
     0.29699446734027496
    ],
    3
   ],
   [
    [
     0.49495492586608214,
     0.2970901038586502
    ],
    3
   ],
   [
    [
     0.49391600778831224,
     0.2931093753712228
    ],
    3
   ],
   [
    [
     0.4905195109764079,
     0.293889285552535
    ],
    3
   ],
   [
    [
     0.49397582031376974,
     0.3001596086994595
    ],
    3
   ]
  ]
 },
 {
  "init_weights": [
   4.100000000000001,
   0.3
  ],
  "results": [
   [
    [
     0.4825617214797741,
     0.3020734147271745
    ],
    4
   ],
   [
    [
     0.49750795100972806,
     0.2918581236700921
    ],
    4
   ],
   [
    [
     0.4922481143111393,
     0.2913146359501159
    ],
    4
   ],
   [
    [
     0.4948941469467045,
     0.2952309539995056
    ],
    4
   ],
   [
    [
     0.48604459230947944,
     0.29674734040843576
    ],
    4
   ],
   [
    [
     0.48676541912294663,
     0.29832810138139504
    ],
    4
   ],
   [
    [
     0.4916361859699941,
     0.28945492619751406
    ],
    4
   ],
   [
    [
     0.49232335549249284,
     0.29354315602056075
    ],
    4
   ],
   [
    [
     0.49528468560040817,
     0.2953473336083052
    ],
    4
   ],
   [
    [
     0.49607891350173744,
     0.29644105508548074
    ],
    4
   ],
   [
    [
     0.494260600024519,
     0.2969944673376781
    ],
    4
   ],
   [
    [
     0.4949549259205809,
     0.2970901038594895
    ],
    4
   ],
   [
    [
     0.4939160078444109,
     0.29310937537085324
    ],
    4
   ],
   [
    [
     0.49051951103424807,
     0.2938892855546707
    ],
    4
   ],
   [
    [
     0.4939758203726281,
     0.3001596086996609
    ],
    4
   ]
  ]
 },
 {
  "init_weights": [
   4.300000000000001,
   0.3
  ],
  "results": [
   [
    [
     0.4825617214824004,
     0.302073414727683
    ],
    4
   ],
   [
    [
     0.497507951012212,
     0.2918581236687522
    ],
    4
   ],
   [
    [
     0.4922481143140314,
     0.2913146359500399
    ],
    4
   ],
   [
    [
     0.49489414694807465,
     0.29523095399924476
    ],
    4
   ],
   [
    [
     0.48604459231115893,
     0.2967473404086444
    ],
    4
   ],
   [
    [
     0.48676541912483334,
     0.298328101380823
    ],
    4
   ],
   [
    [
     0.4916361859716826,
     0.28945492619780117
    ],
    4
   ],
   [
    [
     0.4923233554938646,
     0.2935431560196659
    ],
    4
   ],
   [
    [
     0.49528468560241135,
     0.29534733360835885
    ],
    4
   ],
   [
    [
     0.4960789135030777,
     0.29644105508582685
    ],
    4
   ],
   [
    [
     0.49426060002530725,
     0.296994467337809
    ],
    4
   ],
   [
    [
     0.49495492592257595,
     0.29709010385993784
    ],
    4
   ],
   [
    [
     0.4939160078454008,
     0.29310937537112747
    ],
    4
   ],
   [
    [
     0.49051951103615,
     0.29388928555366933
    ],
    4
   ],
   [
    [
     0.4939758203735145,
     0.3001596087000182
    ],
    4
   ]
  ]
 },
 {
  "init_weights": [
   4.5,
   0.3
  ],
  "results": [
   [
    [
     0.48256172148393145,
     0.3020734147271509
    ],
    4
   ],
   [
    [
     0.4975079510147306,
     0.2918581236696916
    ],
    4
   ],
   [
    [
     0.4922481143158768,
     0.29131463595092877
    ],
    4
   ],
   [
    [
     0.4948941469497038,
     0.2952309539995225
    ],
    4
   ],
   [
    [
     0.4860445923129008,
     0.29674734040968914
    ],
    4
   ],
   [
    [
     0.4867654191262148,
     0.298328101382291
    ],
    4
   ],
   [
    [
     0.4916361859742566,
     0.2894549261986504
    ],
    4
   ],
   [
    [
     0.4923233554950257,
     0.29354315602026104
    ],
    4
   ],
   [
    [
     0.49528468560533945,
     0.295347333609221
    ],
    4
   ],
   [
    [
     0.496078913505271,
     0.29644105508533936
    ],
    4
   ],
   [
    [
     0.4942606000278801,
     0.2969944673380875
    ],
    4
   ],
   [
    [
     0.49495492592643164,
     0.29709010385973045
    ],
    4
   ],
   [
    [
     0.4939160078473612,
     0.2931093753705237
    ],
    4
   ],
   [
    [
     0.4905195110387504,
     0.2938892855537308
    ],
    4
   ],
   [
    [
     0.4939758203759491,
     0.3001596086988574
    ],
    4
   ]
  ]
 },
 {
  "init_weights": [
   4.700000000000001,
   0.3
  ],
  "results": [
   [
    [
     0.4825617214861769,
     0.30207341472824834
    ],
    4
   ],
   [
    [
     0.49750795101582773,
     0.29185812367009095
    ],
    4
   ],
   [
    [
     0.4922481143172678,
     0.291314635950353
    ],
    4
   ],
   [
    [
     0.49489414695282385,
     0.2952309539992734
    ],
    4
   ],
   [
    [
     0.48604459231689456,
     0.2967473404089646
    ],
    4
   ],
   [
    [
     0.4867654191285553,
     0.29832810138234606
    ],
    4
   ],
   [
    [
     0.49163618597659836,
     0.28945492619845214
    ],
    4
   ],
   [
    [
     0.492323355498663,
     0.29354315602038894
    ],
    4
   ],
   [
    [
     0.49528468560668737,
     0.2953473336098851
    ],
    4
   ],
   [
    [
     0.49607891350763456,
     0.2964410550854522
    ],
    4
   ],
   [
    [
     0.49426060003065286,
     0.29699446733704277
    ],
    4
   ],
   [
    [
     0.4949549259273326,
     0.29709010386083334
    ],
    4
   ],
   [
    [
     0.49391600784945,
     0.2931093753713426
    ],
    4
   ],
   [
    [
     0.4905195110409667,
     0.2938892855541381
    ],
    4
   ],
   [
    [
     0.493975820378732,
     0.3001596086998117
    ],
    4
   ]
  ]
 },
 {
  "init_weights": [
   4.9,
   0.3
  ],
  "results": [
   [
    [
     0.4825617214824281,
     0.3020734147267989
    ],
    5
   ],
   [
    [
     0.4975079510113828,
     0.29185812367029285
    ],
    5
   ],
   [
    [
     0.4922481143143762,
     0.29131463594962853
    ],
    5
   ],
   [
    [
     0.4948941469482174,
     0.29523095399879346
    ],
    5
   ],
   [
    [
     0.48604459231127817,
     0.2967473404086636
    ],
    5
   ],
   [
    [
     0.4867654191251718,
     0.2983281013814582
    ],
    5
   ],
   [
    [
     0.49163618597211256,
     0.2894549261989095
    ],
    5
   ],
   [
    [
     0.49232335549298767,
     0.2935431560197559
    ],
    5
   ],
   [
    [
     0.49528468560345795,
     0.29534733360856724
    ],
    5
   ],
   [
    [
     0.49607891350325867,
     0.29644105508538005
    ],
    5
   ],
   [
    [
     0.49426060002517413,
     0.29699446733749957
    ],
    5
   ],
   [
    [
     0.49495492592301626,
     0.29709010386034984
    ],
    5
   ],
   [
    [
     0.49391600784531015,
     0.2931093753704303
    ],
    5
   ],
   [
    [
     0.49051951103623725,
     0.29388928555405097
    ],
    5
   ],
   [
    [
     0.4939758203747544,
     0.30015960869870795
    ],
    5
   ]
  ]
 },
 {
  "init_weights": [
   5.100000000000001,
   0.3
  ],
  "results": [
   [
    [
     0.6461732906560118,
     0.30202762975882574
    ],
    6
   ],
   [
    [
     0.6574982493020285,
     0.29216291424957325
    ],
    6
   ],
   [
    [
     0.6533892368341189,
     0.2916395208110432
    ],
    6
   ],
   [
    [
     0.6554900318589851,
     0.29540614482302224
    ],
    6
   ],
   [
    [
     0.6488827689311994,
     0.2968840529427614
    ],
    6
   ],
   [
    [
     0.6497073833360977,
     0.2984038624700318
    ],
    6
   ],
   [
    [
     0.6530199399853707,
     0.2898368750461885
    ],
    6
   ],
   [
    [
     0.6534774386163156,
     0.2938121554521404
    ],
    6
   ],
   [
    [
     0.6558369155939401,
     0.2955241418480627
    ],
    6
   ],
   [
    [
     0.6561487429048828,
     0.2965986628008396
    ],
    6
   ],
   [
    [
     0.6551364480216555,
     0.29713225301346075
    ],
    6
   ],
   [
    [
     0.6555021398996855,
     0.2972089075788842
    ],
    6
   ],
   [
    [
     0.6548059908404561,
     0.29338181480299264
    ],
    6
   ],
   [
    [
     0.6521161432987246,
     0.29412489262279157
    ],
    6
   ],
   [
    [
     0.6550046634694632,
     0.30014294883621817
    ],
    6
   ]
  ]
 },
 {
  "init_weights": [
   5.300000000000001,
   0.3
  ],
  "results": [
   [
    [
     0.696957728445811,
     0.302017413580614
    ],
    6
   ],
   [
    [
     0.707945551989836,
     0.2922435220989175
    ],
    6
   ],
   [
    [
     0.7039347321829761,
     0.29172483807499017
    ],
    6
   ],
   [
    [
     0.7059920746173128,
     0.29545214095145755
    ],
    6
   ],
   [
    [
     0.6996013718539138,
     0.2969203813642897
    ],
    6
   ],
   [
    [
     0.7004574014320433,
     0.29842424090527503
    ],
    6
   ],
   [
    [
     0.70359528420461,
     0.28993640667347126
    ],
    6
   ],
   [
    [
     0.7040270094470402,
     0.29388419842789815
    ],
    6
   ],
   [
    [
     0.7063388942907938,
     0.29557088344177307
    ],
    6
   ],
   [
    [
     0.7065829498709779,
     0.2966415516455409
    ],
    6
   ],
   [
    [
     0.7056748798410434,
     0.29716979783717296
    ],
    6
   ],
   [
    [
     0.705997055613775,
     0.2972407252707399
    ],
    6
   ],
   [
    [
     0.7053402009098775,
     0.2934542285534087
    ],
    6
   ],
   [
    [
     0.7027071203581684,
     0.29418696218996243
    ],
    6
   ],
   [
    [
     0.7055638041298233,
     0.3001380231205555
    ],
    6
   ]
  ]
 },
 {
  "init_weights": [
   5.5,
   0.3
  ],
  "results": [
   [
    [
     0.7519602272975482,
     0.30200766675122553
    ],
    6
   ],
   [
    [
     0.7626469253556827,
     0.2923257387829835
    ],
    6
   ],
   [
    [
     0.7587210656473288,
     0.2918117863046017
    ],
    6
   ],
   [
    [
     0.7607417240108824,
     0.29549896815872534
    ],
    6
   ],
   [
    [
     0.7545466563284868,
     0.29695766795325546
    ],
    6
   ],
   [
    [
     0.755436927478693,
     0.29844525276064704
    ],
    6
   ],
   [
    [
     0.7584103274285455,
     0.29003756937381353
    ],
    6
   ],
   [
    [
     0.7588178275410304,
     0.2939581765199682
    ],
    6
   ],
   [
    [
     0.7610896372374025,
     0.2956185932359301
    ],
    6
   ],
   [
    [
     0.7612667643441638,
     0.2966857892895554
    ],
    6
   ],
   [
    [
     0.760459953705228,
     0.29720858247303605
    ],
    6
   ],
   [
    [
     0.7607396103683993,
     0.29727336631142925
    ],
    6
   ],
   [
    [
     0.7601199332157389,
     0.29352833701173886
    ],
    6
   ],
   [
    [
     0.7575349188070628,
     0.29425034166888137
    ],
    6
   ],
   [
    [
     0.7603691699329783,
     0.3001327854426762
    ],
    6
   ]
  ]
 },
 {
  "init_weights": [
   5.700000000000001,
   0.3
  ],
  "results": [
   [
    [
     0.8107504672712618,
     0.3019985155072879
    ],
    6
   ],
   [
    [
     0.8211651282881045,
     0.292408702034815
    ],
    6
   ],
   [
    [
     0.8173133483051999,
     0.29189945977507836
    ],
    6
   ],
   [
    [
     0.8193029376305985,
     0.2955461342695791
    ],
    6
   ],
   [
    [
     0.8132867680402585,
     0.29699554044862064
    ],
    6
   ],
   [
    [
     0.8142140173953484,
     0.29846669220789146
    ],
    6
   ],
   [
    [
     0.8170305508301273,
     0.2901393001464926
    ],
    6
   ],
   [
    [
     0.8174149933767849,
     0.29403334228447897
    ],
    6
   ],
   [
    [
     0.8196529642200109,
     0.2956667747178811
    ],
    6
   ],
   [
    [
     0.8197633763508332,
     0.2967309330026957
    ],
    6
   ],
   [
    [
     0.8190560337061986,
     0.29724822357165626
    ],
    6
   ],
   [
    [
     0.8192937023170918,
     0.29730649790212843
    ],
    6
   ],
   [
    [
     0.8187096537833842,
     0.2936033792524571
    ],
    6
   ],
   [
    [
     0.8161654827766149,
     0.29431437844374714
    ],
    6
   ],
   [
    [
     0.8189853319297247,
     0.30012728138694256
    ],
    6
   ]
  ]
 },
 {
  "init_weights": [
   5.9,
   0.3
  ],
  "results": [
   [
    [
     0.8729759511241716,
     0.3019900400679725
    ],
    6
   ],
   [
    [
     0.8831426566465209,
     0.29249179943677645
    ],
    6
   ],
   [
    [
     0.8793557685541653,
     0.29198721565067126
    ],
    6
   ],
   [
    [
     0.8813190760441484,
     0.2955932908358285
    ],
    6
   ],
   [
    [
     0.8754681027697353,
     0.29703373058658467
    ],
    6
   ],
   [
    [
     0.8764350188281742,
     0.2984884095307827
    ],
    6
   ],
   [
    [
     0.8791004159315448,
     0.29024084831210534
    ],
    6
   ],
   [
    [
     0.8794626895899837,
     0.2941091571941015
    ],
    6
   ],
   [
    [
     0.8816721391677287,
     0.2957150746060524
    ],
    6
   ],
   [
    [
     0.8817155776427248,
     0.2967766611222173
    ],
    6
   ],
   [
    [
     0.8811067817030406,
     0.297288441587355
    ],
    6
   ],
   [
    [
     0.8813026470454479,
     0.29733988084474017
    ],
    6
   ],
   [
    [
     0.8807530938724282,
     0.29367881086971587
    ],
    6
   ],
   [
    [
     0.8782436054552966,
     0.2943786074112578
    ],
    6
   ],
   [
    [
     0.881056106797394,
     0.3001215464496536
    ],
    6
   ]
  ]
 },
 {
  "init_weights": [
   6.100000000000001,
   0.3
  ],
  "results": [
   [
    [
     0.938341611958783,
     0.3019822892669291
    ],
    6
   ],
   [
    [
     0.9482806825649893,
     0.2925745923250829
    ],
    6
   ],
   [
    [
     0.9445507620551471,
     0.2920745939440555
    ],
    6
   ],
   [
    [
     0.9464919589574323,
     0.2956401892578223
    ],
    6
   ],
   [
    [
     0.9407947654030446,
     0.2970720426946391
    ],
    6
   ],
   [
    [
     0.941804016203,
     0.29851029429130815
    ],
    6
   ],
   [
    [
     0.944322568561936,
     0.29034168023960966
    ],
    6
   ],
   [
    [
     0.944663349252176,
     0.2941852285791986
    ],
    6
   ],
   [
    [
     0.9468489121381611,
     0.29576323924568815
    ],
    6
   ],
   [
    [
     0.9468247476976969,
     0.29682273672039855
    ],
    6
   ],
   [
    [
     0.9463142506500658,
     0.2973290297556905
    ],
    6
   ],
   [
    [
     0.9464682286581999,
     0.29737334123664094
    ],
    6
   ],
   [
    [
     0.9459523545047097,
